{"learner":{"attributes":{},"feature_names":["baseline value","accelerations","fetal_movement","uterine_contractions","light_decelerations","severe_decelerations","prolongued_decelerations","abnormal_short_term_variability","mean_value_of_short_term_variability","percentage_of_time_with_abnormal_long_term_variability","mean_value_of_long_term_variability","histogram_width","histogram_min","histogram_max","histogram_number_of_peaks","histogram_number_of_zeroes","histogram_mode","histogram_mean","histogram_median","histogram_variance","histogram_tendency"],"feature_types":["float","float","float","float","float","float","float","float","float","float","float","float","float","float","float","float","float","float","float","float","float"],"gradient_booster":{"model":{"cats":{"enc":[],"feature_segments":[],"sorted_idx":[]},"gbtree_model_param":{"num_parallel_tree":"1","num_trees":"600"},"iteration_indptr":[0,3,6,9,12,15,18,21,24,27,30,33,36,39,42,45,48,51,54,57,60,63,66,69,72,75,78,81,84,87,90,93,96,99,102,105,108,111,114,117,120,123,126,129,132,135,138,141,144,147,150,153,156,159,162,165,168,171,174,177,180,183,186,189,192,195,198,201,204,207,210,213,216,219,222,225,228,231,234,237,240,243,246,249,252,255,258,261,264,267,270,273,276,279,282,285,288,291,294,297,300,303,306,309,312,315,318,321,324,327,330,333,336,339,342,345,348,351,354,357,360,363,366,369,372,375,378,381,384,387,390,393,396,399,402,405,408,411,414,417,420,423,426,429,432,435,438,441,444,447,450,453,456,459,462,465,468,471,474,477,480,483,486,489,492,495,498,501,504,507,510,513,516,519,522,525,528,531,534,537,540,543,546,549,552,555,558,561,564,567,570,573,576,579,582,585,588,591,594,597,600],"tree_info":[0,1,2,0,1,2,0,1,2,0,1,2,0,1,2,0,1,2,0,1,2,0,1,2,0,1,2,0,1,2,0,1,2,0,1,2,0,1,2,0,1,2,0,1,2,0,1,2,0,1,2,0,1,2,0,1,2,0,1,2,0,1,2,0,1,2,0,1,2,0,1,2,0,1,2,0,1,2,0,1,2,0,1,2,0,1,2,0,1,2,0,1,2,0,1,2,0,1,2,0,1,2,0,1,2,0,1,2,0,1,2,0,1,2,0,1,2,0,1,2,0,1,2,0,1,2,0,1,2,0,1,2,0,1,2,0,1,2,0,1,2,0,1,2,0,1,2,0,1,2,0,1,2,0,1,2,0,1,2,0,1,2,0,1,2,0,1,2,0,1,2,0,1,2,0,1,2,0,1,2,0,1,2,0,1,2,0,1,2,0,1,2,0,1,2,0,1,2,0,1,2,0,1,2,0,1,2,0,1,2,0,1,2,0,1,2,0,1,2,0,1,2,0,1,2,0,1,2,0,1,2,0,1,2,0,1,2,0,1,2,0,1,2,0,1,2,0,1,2,0,1,2,0,1,2,0,1,2,0,1,2,0,1,2,0,1,2,0,1,2,0,1,2,0,1,2,0,1,2,0,1,2,0,1,2,0,1,2,0,1,2,0,1,2,0,1,2,0,1,2,0,1,2,0,1,2,0,1,2,0,1,2,0,1,2,0,1,2,0,1,2,0,1,2,0,1,2,0,1,2,0,1,2,0,1,2,0,1,2,0,1,2,0,1,2,0,1,2,0,1,2,0,1,2,0,1,2,0,1,2,0,1,2,0,1,2,0,1,2,0,1,2,0,1,2,0,1,2,0,1,2,0,1,2,0,1,2,0,1,2,0,1,2,0,1,2,0,1,2,0,1,2,0,1,2,0,1,2,0,1,2,0,1,2,0,1,2,0,1,2,0,1,2,0,1,2,0,1,2,0,1,2,0,1,2,0,1,2,0,1,2,0,1,2,0,1,2,0,1,2,0,1,2,0,1,2,0,1,2,0,1,2,0,1,2,0,1,2,0,1,2,0,1,2,0,1,2,0,1,2,0,1,2,0,1,2,0,1,2,0,1,2,0,1,2,0,1,2,0,1,2,0,1,2,0,1,2,0,1,2,0,1,2,0,1,2,0,1,2,0,1,2,0,1,2,0,1,2,0,1,2,0,1,2,0,1,2,0,1,2,0,1,2,0,1,2,0,1,2,0,1,2,0,1,2,0,1,2,0,1,2,0,1,2,0,1,2,0,1,2,0,1,2,0,1,2,0,1,2,0,1,2,0,1,2,0,1,2,0,1,2,0,1,2,0,1,2,0,1,2],"trees":[{"base_weights":[4.125573E-3,4.568212E-1,-1.0820848E0,-1.6966031E-1,4.938117E-1,-4.0679634E-1,-1.8725216E0,5.1131964E-1,-1.520468E-1,-1.91207E0,6.880419E-2,-2.1189418E0,-5.057942E-1,5.7961E-1,2.0859943E-1,-2.065659E-1,3.268451E-2,-6.906805E-1,4.4977665E-1,-2.1908744E-1,-4.2375642E-1,2.9286557E-1,-1.7481656E-1,5.8694816E-1,-6.557071E-2,3.3062503E-1,-1.0107795E0,-1.0033814E0,5.0854344E-2,5.4557544E-1,-8.6922085E-1,3.7260853E-2,-1.1469833E-1,-9.997474E-4,4.9815845E-2,6.1061794E-1,3.3452502E-1,5.233473E-1,-9.083816E-2,3.268451E-2,-1.3676724E0,-3.8880402E-1,-1.7807397E-1,6.249035E-2,-1.1469833E-1,-1.1469833E-1,-1.6443102E-2,-4.6748515E-2,4.06782E-2,6.1864746E-1,-9.997474E-4,-1.0742685E0,6.124089E-2,5.4645723E-1,-1.6443102E-2,3.9470464E-1,-6.599635E-1,-1.655212E-1,-1.6443102E-2,-1.5235333E-1,4.033278E-1,6.2278515E-1,-1.6443102E-2,-6.557071E-2,4.3327358E-2,-3.2693174E-2,-1.4275025E-1,5.7086426E-1,-1.6443102E-2,-3.2693174E-2,5.7060607E-2,-1.1147771E0,4.8893612E-2,5.323233E-2,-1.6443102E-2,6.268444E-2,2.0581001E-2,6.224438E-2,1.8941155E-2,-1.520468E-1,-4.2375643E-2,4.5441177E-2,-6.557071E-2],"categories":[],"categories_nodes":[],"categories_segments":[],"categories_sizes":[],"default_left":[0,0,0,0,0,0,0,0,0,0,0,0,0,0,0,0,0,0,0,0,0,0,0,0,0,0,0,0,0,0,0,0,0,0,0,0,0,0,0,0,0,0,0,0,0,0,0,0,0,0,0,0,0,0,0,0,0,0,0,0,0,0,0,0,0,0,0,0,0,0,0,0,0,0,0,0,0,0,0,0,0,0,0],"id":0,"left_children":[1,3,5,-1,7,9,11,13,-1,15,17,19,21,23,25,-1,-1,27,29,-1,31,33,-1,35,-1,37,39,41,-1,43,45,-1,-1,47,-1,49,51,53,55,-1,57,59,-1,-1,-1,-1,-1,-1,-1,61,63,65,-1,67,-1,69,71,-1,-1,-1,73,75,-1,-1,-1,-1,-1,77,-1,-1,-1,79,81,-1,-1,-1,-1,-1,-1,-1,-1,-1,-1],"loss_changes":[2.3130798E2,2.728524E1,7.3100876E1,0E0,1.2315971E1,5.447068E1,2.030632E1,6.6001816E0,0E0,6.953781E0,1.7278776E1,5.591202E0,1.1436434E1,2.784462E0,9.470982E0,0E0,0E0,8.004398E0,5.4855013E0,0E0,2.3949456E0,4.5647633E-1,0E0,1.3711395E0,0E0,4.642674E0,3.2313414E0,7.041195E0,0E0,5.763624E0,4.1259813E-1,0E0,0E0,9.7132903E-1,0E0,1.1785736E0,1.0373215E1,7.092438E-1,5.401355E0,0E0,1.3874578E0,9.890343E0,0E0,0E0,0E0,0E0,0E0,0E0,0E0,8.6951447E-1,1.4516816E0,7.084894E-1,0E0,7.52038E-1,0E0,1.5403068E0,2.936404E0,0E0,0E0,0E0,5.905254E-1,2.699585E-1,0E0,0E0,0E0,0E0,0E0,6.080742E-1,0E0,0E0,0E0,8.939872E-1,1.569943E0,0E0,0E0,0E0,0E0,0E0,0E0,0E0,0E0,0E0,0E0],"parents":[2147483647,0,0,1,1,2,2,4,4,5,5,6,6,7,7,9,9,10,10,11,11,12,12,13,13,14,14,17,17,18,18,20,20,21,21,23,23,25,25,26,26,27,27,29,29,30,30,33,33,35,35,36,36,37,37,38,38,40,40,41,41,49,49,50,50,51,51,53,53,55,55,56,56,60,60,61,61,67,67,71,71,72,72],"right_children":[2,4,6,-1,8,10,12,14,-1,16,18,20,22,24,26,-1,-1,28,30,-1,32,34,-1,36,-1,38,40,42,-1,44,46,-1,-1,48,-1,50,52,54,56,-1,58,60,-1,-1,-1,-1,-1,-1,-1,62,64,66,-1,68,-1,70,72,-1,-1,-1,74,76,-1,-1,-1,-1,-1,78,-1,-1,-1,80,82,-1,-1,-1,-1,-1,-1,-1,-1,-1,-1],"split_conditions":[7.568824E-1,-1.7069056E0,2.2581638E-1,-1.6966031E-1,2.7811985E0,-1.8351935E0,5.546267E-1,8.337049E-3,-1.520468E-1,2.3507638E0,-7.1660304E-1,-7.1660304E-1,-4.4734764E-1,3.3682044E0,1.246686E0,-2.065659E-1,3.268451E-2,-5.636348E-1,3.1221755E0,-2.1908744E-1,7.822452E-1,1.313213E0,-1.7481656E-1,1.2437173E0,-6.557071E-2,9.6173066E-1,-9.456552E-1,-1.0641745E0,5.0854344E-2,1.595375E0,1.7239802E-1,3.7260853E-2,-1.1469833E-1,1.6295452E0,4.9815845E-2,3.009646E0,-3.0488127E-1,-5.317162E-2,-1.5774685E-1,3.268451E-2,7.131365E-1,9.105699E-2,-1.7807397E-1,6.249035E-2,-1.1469833E-1,-1.1469833E-1,-1.6443102E-2,-4.6748515E-2,4.06782E-2,1.4692291E0,-4.6127744E-2,6.064364E-1,6.124089E-2,1.3173045E0,-1.6443102E-2,9.8552763E-1,5.520354E-1,-1.655212E-1,-1.6443102E-2,-1.5235333E-1,1.2804801E0,3.1221755E0,-1.6443102E-2,-6.557071E-2,4.3327358E-2,-3.2693174E-2,-1.4275025E-1,8.9414185E-1,-1.6443102E-2,-3.2693174E-2,5.7060607E-2,-1.2440374E-1,1.1985314E0,5.323233E-2,-1.6443102E-2,6.268444E-2,2.0581001E-2,6.224438E-2,1.8941155E-2,-1.520468E-1,-4.2375643E-2,4.5441177E-2,-6.557071E-2],"split_indices":[7,17,9,0,9,17,3,9,0,11,8,8,13,14,11,0,0,1,6,0,0,9,0,17,0,18,0,11,0,0,0,0,0,7,0,19,1,2,10,0,4,10,0,0,0,0,0,0,0,12,1,10,0,10,0,0,9,0,0,0,7,6,0,0,0,0,0,3,0,0,0,3,12,0,0,0,0,0,0,0,0,0,0],"split_type":[0,0,0,0,0,0,0,0,0,0,0,0,0,0,0,0,0,0,0,0,0,0,0,0,0,0,0,0,0,0,0,0,0,0,0,0,0,0,0,0,0,0,0,0,0,0,0,0,0,0,0,0,0,0,0,0,0,0,0,0,0,0,0,0,0,0,0,0,0,0,0,0,0,0,0,0,0,0,0,0,0,0,0],"sum_hessian":[4.6839807E2,3.310197E2,1.3737836E2,4.8324046E0,3.2618732E2,7.490227E1,6.2476086E1,3.2411627E2,2.0710306E0,1.7258587E1,5.764368E1,5.2466106E1,1.0009981E1,2.637112E2,6.0405056E1,1.6223072E1,1.0355153E0,1.8984446E1,3.8659237E1,5.0049904E1,2.4162023E0,6.5582633E0,3.4517174E0,2.626757E2,1.0355153E0,5.557265E1,4.8324046E0,1.5187557E1,3.7968893E0,3.6588207E1,2.0710306E0,1.380687E0,1.0355153E0,3.1065457E0,3.4517174E0,2.3885886E2,2.381685E1,3.796889E1,1.760376E1,1.0355153E0,3.7968893E0,9.319637E0,5.86792E0,3.555269E1,1.0355153E0,1.0355153E0,1.0355153E0,1.380687E0,1.7258587E0,2.357523E2,3.1065457E0,3.4517174E0,2.0365133E1,3.6933376E1,1.0355153E0,9.664809E0,7.93895E0,2.761374E0,1.0355153E0,3.4517174E0,5.86792E0,2.347168E2,1.0355153E0,1.0355153E0,2.0710306E0,1.7258587E0,1.7258587E0,3.589786E1,1.0355153E0,1.7258587E0,7.93895E0,4.4872327E0,3.4517174E0,4.8324046E0,1.0355153E0,2.3195541E2,2.761374E0,3.1065458E1,4.8324046E0,2.0710306E0,2.4162023E0,2.4162023E0,1.0355153E0],"tree_param":{"num_deleted":"0","num_feature":"21","num_nodes":"83","size_leaf_vector":"1"}},{"base_weights":[-4.062605E-2,1.6634593E0,-3.924271E-1,2.022182E0,-5.134902E-2,-4.5279855E-1,6.691003E-1,1.7099866E-1,2.4515126E0,-5.259476E-1,-9.056439E-2,2.412384E-1,5.117946E-2,-4.602861E-2,6.303018E-1,6.095098E-1,2.9023247E0,-5.445814E-1,1.3008398E-1,-3.2405016E-1,1.0543236E0,-3.0515042E-1,9.566936E-1,-3.8127605E-2,1.1630856E0,-2.8259245E-1,1.5082414E0,3.163148E0,-3.9639674E-2,-5.582E-1,-6.744479E-2,3.95967E-1,-4.6731034E-1,1.7513806E0,2.000712E-1,4.793576E-2,-5.074227E-2,1.961212E-1,-3.421246E-2,1.961212E-1,2.3813402E-2,-4.3927923E-2,1.3931985E-2,2.021884E-1,3.8456846E-2,3.253042E-1,5.9479285E-2,-5.629875E-1,1.3931985E-2,1.05026595E-1,-4.801875E-2,-4.3927923E-2,1.2321647E0,-5.2693695E-1,2.3813402E-2,5.9479285E-2,2.021884E-1,-4.093851E-2,1.05026595E-1,-1.8354866E-1,-5.726099E-1,1.7115809E-1,1.3931985E-2,-5.5794626E-2,-2.530607E-1,4.793576E-2,-4.6596613E-2,-5.776154E-2,-2.1703213E-1,-4.206625E-2,1.3931985E-2,1.3931985E-2,-3.9639674E-2],"categories":[],"categories_nodes":[],"categories_segments":[],"categories_sizes":[],"default_left":[0,0,0,0,0,0,0,0,0,0,0,0,0,0,0,0,0,0,0,0,0,0,0,0,0,0,0,0,0,0,0,0,0,0,0,0,0,0,0,0,0,0,0,0,0,0,0,0,0,0,0,0,0,0,0,0,0,0,0,0,0,0,0,0,0,0,0,0,0,0,0,0,0],"id":1,"left_children":[1,3,5,7,-1,9,11,13,15,17,19,-1,21,-1,23,25,27,29,-1,31,33,35,37,-1,39,41,43,45,-1,47,49,51,53,55,57,-1,-1,-1,-1,-1,-1,-1,-1,-1,-1,-1,-1,59,-1,-1,-1,-1,61,63,-1,-1,-1,-1,-1,65,67,-1,-1,-1,69,-1,-1,-1,71,-1,-1,-1,-1],"loss_changes":[1.9447807E2,4.439177E1,1.7529037E1,3.762195E1,0E0,6.707226E0,1.5892545E1,3.2145507E0,3.0432495E1,7.9211617E0,1.2113862E1,0E0,4.1634827E0,0E0,3.8174531E0,7.5542135E0,2.7829407E1,1.3298683E0,0E0,4.037044E0,4.2316303E0,1.7298921E0,5.407179E0,0E0,2.7423825E0,4.1182905E-1,1.8696527E0,4.6996765E0,0E0,7.612686E-1,3.723279E0,5.2476387E0,1.4549041E0,8.273983E-2,2.8065188E0,0E0,0E0,0E0,0E0,0E0,0E0,0E0,0E0,0E0,0E0,0E0,0E0,6.371002E-1,0E0,0E0,0E0,0E0,1.6634746E0,1.0894489E-1,0E0,0E0,0E0,0E0,0E0,1.4401563E0,2.2666168E-1,0E0,0E0,0E0,3.7596E-1,0E0,0E0,0E0,3.3310187E-1,0E0,0E0,0E0,0E0],"parents":[2147483647,0,0,1,1,2,2,3,3,5,5,6,6,7,7,8,8,9,9,10,10,12,12,14,14,15,15,16,16,17,17,19,19,20,20,21,21,22,22,24,24,25,25,26,26,27,27,29,29,30,30,31,31,32,32,33,33,34,34,47,47,52,52,53,53,59,59,60,60,64,64,68,68],"right_children":[2,4,6,8,-1,10,12,14,16,18,20,-1,22,-1,24,26,28,30,-1,32,34,36,38,-1,40,42,44,46,-1,48,50,52,54,56,58,-1,-1,-1,-1,-1,-1,-1,-1,-1,-1,-1,-1,60,-1,-1,-1,-1,62,64,-1,-1,-1,-1,-1,66,68,-1,-1,-1,70,-1,-1,-1,72,-1,-1,-1,-1],"split_conditions":[-8.2984906E-1,3.2161572E0,1.4937336E0,-1.00402616E-1,-5.134902E-2,-1.5477245E-1,1.0512854E0,-9.43095E-1,7.568824E-1,1.5030663E0,1.3334037E0,2.412384E-1,6.597515E-1,-4.602861E-2,6.987049E-1,1.0104132E0,1.9204328E0,1.4361492E0,1.3008398E-1,-7.1660304E-1,-5.636348E-1,-1.115527E0,-4.6127744E-2,-3.8127605E-2,9.895925E-1,-1.8177557E-1,1.595375E0,1.2336571E0,-3.9639674E-2,3.3682044E0,2.1262577E-1,4.7398958E-1,1.7481717E0,2.740392E-1,7.9470944E-1,4.793576E-2,-5.074227E-2,1.961212E-1,-3.421246E-2,1.961212E-1,2.3813402E-2,-4.3927923E-2,1.3931985E-2,2.021884E-1,3.8456846E-2,3.253042E-1,5.9479285E-2,-7.1660304E-1,1.3931985E-2,1.05026595E-1,-4.801875E-2,-4.3927923E-2,9.871414E-1,4.8203444E-1,2.3813402E-2,5.9479285E-2,2.021884E-1,-4.093851E-2,1.05026595E-1,2.8492653E-1,3.3602521E0,1.7115809E-1,1.3931985E-2,-5.5794626E-2,6.270688E-2,4.793576E-2,-4.6596613E-2,-5.776154E-2,-5.636348E-1,-4.206625E-2,1.3931985E-2,1.3931985E-2,-3.9639674E-2],"split_indices":[8,9,0,9,0,9,17,8,7,12,14,0,10,0,7,16,7,17,0,8,1,11,1,0,7,2,0,3,0,14,1,17,9,0,17,0,0,0,0,0,0,0,0,0,0,0,0,8,0,0,0,0,17,10,0,0,0,0,0,12,8,0,0,0,9,0,0,0,1,0,0,0,0],"split_type":[0,0,0,0,0,0,0,0,0,0,0,0,0,0,0,0,0,0,0,0,0,0,0,0,0,0,0,0,0,0,0,0,0,0,0,0,0,0,0,0,0,0,0,0,0,0,0,0,0,0,0,0,0,0,0,0,0,0,0,0,0,0,0,0,0,0,0,0,0,0,0,0,0],"sum_hessian":[3.223121E2,5.4515697E1,2.6779642E2,4.6864372E1,7.651326E0,2.5392839E2,1.3868029E1,9.08595E0,3.7778423E1,2.1088968E2,4.303871E1,2.8692474E0,1.0998781E1,3.825663E0,5.260287E0,7.89043E0,2.9887993E1,2.0945505E2,1.4346237E0,3.63438E1,6.6949105E0,8.368638E0,2.6301434E0,1.9128315E0,3.3474553E0,4.303871E0,3.586559E0,2.7736057E1,2.1519356E0,2.0347746E2,5.9775987E0,5.738495E0,3.0605305E1,3.1083512E0,3.586559E0,1.4346237E0,6.9340143E0,1.1955197E0,1.4346237E0,1.1955197E0,2.1519356E0,3.1083512E0,1.1955197E0,1.9128315E0,1.6737276E0,2.6540537E1,1.1955197E0,2.0228194E2,1.1955197E0,1.1955197E0,4.7820787E0,3.1083512E0,2.6301434E0,2.845337E1,2.1519356E0,1.1955197E0,1.9128315E0,2.3910394E0,1.1955197E0,5.4993906E0,1.9678255E2,1.4346237E0,1.1955197E0,2.4627707E1,3.825663E0,1.4346237E0,4.064767E0,1.9343509E2,3.3474553E0,2.6301434E0,1.1955197E0,1.1955197E0,2.1519356E0],"tree_param":{"num_deleted":"0","num_feature":"21","num_nodes":"73","size_leaf_vector":"1"}},{"base_weights":[-2.7678035E-2,5.1628506E-1,-3.0591854E-1,-4.062446E-1,4.021522E-1,-4.7350627E-1,3.7826687E-1,-5.260815E-1,1.7220789E0,5.291077E-2,-5.3681713E-2,-2.9929413E-2,2.5256042E0,3.3091843E-1,6.0282554E-2],"categories":[],"categories_nodes":[],"categories_segments":[],"categories_sizes":[],"default_left":[0,0,0,0,0,0,0,0,0,0,0,0,0,0,0],"id":2,"left_children":[1,-1,3,5,-1,7,-1,9,11,-1,-1,-1,13,-1,-1],"loss_changes":[2.9610532E2,0E0,8.607826E1,5.5607185E1,0E0,2.2708382E1,0E0,2.3822708E0,8.310172E0,0E0,0E0,0E0,3.1789799E0,0E0,0E0],"parents":[2147483647,0,0,2,2,3,3,5,5,7,7,8,8,12,12],"right_children":[2,-1,4,6,-1,8,-1,10,12,-1,-1,-1,14,-1,-1],"split_conditions":[-1.7069056E0,5.1628506E-1,3.2161572E0,1.9204328E0,4.021522E-1,3.1221755E0,3.7826687E-1,-1.7983292E0,-4.3744922E-1,5.291077E-2,-5.3681713E-2,-2.9929413E-2,-3.328984E-1,3.3091843E-1,6.0282554E-2],"split_indices":[17,0,9,7,0,6,0,16,0,0,0,0,16,0,0],"split_type":[0,0,0,0,0,0,0,0,0,0,0,0,0,0,0],"sum_hessian":[2.029349E2,9.431757E0,1.9350316E2,1.9000427E2,3.4988778E0,1.8787453E2,2.1297517E0,1.8422353E2,3.651003E0,1.3691261E0,1.828544E2,1.217001E0,2.434002E0,1.217001E0,1.217001E0],"tree_param":{"num_deleted":"0","num_feature":"21","num_nodes":"15","size_leaf_vector":"1"}},{"base_weights":[1.5576112E-2,4.5585978E-1,-8.72012E-1,4.931909E-1,-9.8691934E-1,-1.3902798E0,-3.1938288E-1,5.7323235E-1,1.3433118E-1,-1.4486697E-1,-5.6877546E-2,-4.4976664E-1,-1.5119249E0,-1.4732332E0,1.5407188E-1,-6.3927256E-2,5.8471674E-1,-4.850675E-1,5.2561027E-1,3.964239E-2,-6.0618456E-2,4.403306E-2,-1.3483278E-1,-1.5514307E0,-1.8416601E-1,-1.5879251E-1,-3.7937123E-1,3.7595108E-1,-7.905031E-1,5.9237003E-1,-3.0687531E-2,-2.0470399E-1,-1.3860033E-1,-6.6185124E-2,5.8037597E-1,5.094868E-2,-6.6036874E-1,-1.6192843E0,-1.0822233E0,3.352912E-2,-6.0669918E-2,3.6915895E-2,-9.314638E-2,4.5495895E-1,-9.279045E-2,-1.1771935E0,4.4103812E-2,6.000834E-1,5.624096E-2,3.864434E-1,-4.83895E-1,6.0818583E-2,-5.612405E-3,-1.1742534E-1,3.177237E-2,-5.2304626E-2,-1.6336174E-1,-4.1609198E-2,-1.3943447E-1,5.1842517E-1,-6.433483E-2,-1.474625E-1,2.2795189E-3,6.07343E-2,3.903231E-1,4.5142554E-2,-6.756511E-2,5.2282322E-2,-1.7186552E-2,-1.20677166E-1,-1.8854107E-1,4.0413897E-2,-5.3210516E-2,5.640898E-1,-6.1531004E-2,5.6628264E-2,-6.472837E-2,2.9732252E-2,-1.0389882E-1,-1.5286088E-2,5.872057E-1,-2.7558682E-2,4.8345316E-2,6.103467E-2,2.8499464E-2],"categories":[],"categories_nodes":[],"categories_segments":[],"categories_sizes":[],"default_left":[0,0,0,0,0,0,0,0,0,0,0,0,0,0,0,0,0,0,0,0,0,0,0,0,0,0,0,0,0,0,0,0,0,0,0,0,0,0,0,0,0,0,0,0,0,0,0,0,0,0,0,0,0,0,0,0,0,0,0,0,0,0,0,0,0,0,0,0,0,0,0,0,0,0,0,0,0,0,0,0,0,0,0,0,0],"id":3,"left_children":[1,3,5,7,9,11,13,15,17,-1,19,21,23,25,27,-1,29,31,33,-1,-1,35,-1,37,39,-1,41,43,45,47,-1,49,-1,-1,51,-1,53,55,57,-1,-1,-1,-1,59,-1,61,-1,63,65,67,69,-1,-1,-1,-1,-1,-1,71,-1,73,-1,-1,-1,-1,75,-1,-1,-1,-1,-1,77,-1,-1,79,-1,-1,-1,81,-1,-1,83,-1,-1,-1,-1],"loss_changes":[1.826548E2,1.7312737E1,4.3944237E1,8.689079E0,3.4444375E0,8.435959E0,4.191081E1,3.8442078E0,1.4060214E1,0E0,1.1779218E0,4.7399683E0,3.3928833E0,2.194584E0,1.1825887E1,0E0,1.8700104E0,5.4179173E0,2.6855812E0,0E0,0E0,2.885954E0,0E0,4.1156006E-1,8.972307E-1,0E0,1.7611893E0,5.0807366E0,5.6556487E0,9.8207855E-1,0E0,3.2219305E0,0E0,0E0,6.4237785E-1,0E0,2.1470542E0,4.6920776E-2,3.7104445E0,0E0,0E0,0E0,0E0,3.3524466E0,0E0,3.0605936E0,0E0,1.3153839E-1,1.6318285E0,5.813373E-1,2.5339253E0,0E0,0E0,0E0,0E0,0E0,0E0,1.025718E0,0E0,2.4954786E0,0E0,0E0,0E0,0E0,2.3558512E0,0E0,0E0,0E0,0E0,0E0,1.9553919E0,0E0,0E0,7.595167E-1,0E0,0E0,0E0,1.4107765E0,0E0,0E0,1.0129452E-1,0E0,0E0,0E0,0E0],"parents":[2147483647,0,0,1,1,2,2,3,3,4,4,5,5,6,6,7,7,8,8,10,10,11,11,12,12,13,13,14,14,16,16,17,17,18,18,21,21,23,23,24,24,26,26,27,27,28,28,29,29,31,31,34,34,36,36,37,37,38,38,43,43,45,45,47,47,48,48,49,49,50,50,57,57,59,59,64,64,70,70,73,73,77,77,80,80],"right_children":[2,4,6,8,10,12,14,16,18,-1,20,22,24,26,28,-1,30,32,34,-1,-1,36,-1,38,40,-1,42,44,46,48,-1,50,-1,-1,52,-1,54,56,58,-1,-1,-1,-1,60,-1,62,-1,64,66,68,70,-1,-1,-1,-1,-1,-1,72,-1,74,-1,-1,-1,-1,76,-1,-1,-1,-1,-1,78,-1,-1,80,-1,-1,-1,82,-1,-1,84,-1,-1,-1,-1],"split_conditions":[7.568824E-1,3.1221755E0,-8.2984906E-1,9.6173066E-1,-1.3861858E0,-1.00402616E-1,-1.8351935E0,-2.286806E0,-4.6127744E-2,-1.4486697E-1,1.0882869E-1,1.8040777E0,1.2336571E0,1.6725372E0,1.0155998E0,-6.3927256E-2,2.4006097E0,6.775232E-1,-1.115527E0,3.964239E-2,-6.0618456E-2,-9.43095E-1,-1.3483278E-1,-1.2440374E-1,9.8552763E-1,-1.5879251E-1,-2.1653497E0,8.196968E-1,2.2282434E0,2.2616994E0,-3.0687531E-2,7.5864756E-1,-1.3860033E-1,-6.6185124E-2,2.6899374E0,5.094868E-2,2.510023E-1,-4.6032783E-2,-6.1457205E-1,3.352912E-2,-6.0669918E-2,3.6915895E-2,-9.314638E-2,3.1221755E0,-9.279045E-2,-1.3890758E-1,4.4103812E-2,1.0957336E0,1.0926286E0,1.5599498E0,9.8552763E-1,6.0818583E-2,-5.612405E-3,-1.1742534E-1,3.177237E-2,-5.2304626E-2,-1.6336174E-1,-1.8177557E-1,-1.3943447E-1,1.4937336E0,-6.433483E-2,-1.474625E-1,2.2795189E-3,6.07343E-2,1.0882869E-1,4.5142554E-2,-6.756511E-2,5.2282322E-2,-1.7186552E-2,-1.20677166E-1,2.7811985E0,4.0413897E-2,-5.3210516E-2,-1.5064358E0,-6.1531004E-2,5.6628264E-2,-6.472837E-2,5.520354E-1,-1.0389882E-1,-1.5286088E-2,8.7825435E-1,-2.7558682E-2,4.8345316E-2,6.103467E-2,2.8499464E-2],"split_indices":[7,6,8,18,17,9,17,16,1,0,10,7,3,14,11,0,9,10,11,0,0,8,0,3,0,0,0,10,13,2,0,12,0,0,14,0,10,9,13,0,0,0,0,6,0,2,0,9,11,16,0,0,0,0,0,0,0,2,0,0,0,0,0,0,10,0,0,0,0,0,9,0,0,13,0,0,0,9,0,0,9,0,0,0,0],"split_type":[0,0,0,0,0,0,0,0,0,0,0,0,0,0,0,0,0,0,0,0,0,0,0,0,0,0,0,0,0,0,0,0,0,0,0,0,0,0,0,0,0,0,0,0,0,0,0,0,0,0,0,0,0,0,0,0,0,0,0,0,0,0,0,0,0,0,0,0,0,0,0,0,0,0,0,0,0,0,0,0,0,0,0,0,0],"sum_hessian":[4.6538092E2,3.1139926E2,1.5398164E2,3.0418677E2,7.2125E0,7.8679E1,7.530265E1,2.4822446E2,5.596231E1,4.4469995E0,2.7655005E0,9.548793E0,6.913021E1,2.1294481E1,5.4008167E1,1.8161247E0,2.4640834E2,2.1572746E1,3.4389565E1,1.6676419E0,1.0978587E0,6.776047E0,2.772746E0,6.696917E1,2.1610386E0,1.8864828E1,2.4296527E0,4.4222385E1,9.785781E0,2.4464395E2,1.7643853E0,1.7388733E1,4.1840124E0,1.0274153E0,3.3362152E1,4.246657E0,2.5293903E0,5.6366688E1,1.0602482E1,1.0619562E0,1.0990825E0,1.1719977E0,1.2576551E0,4.2309673E1,1.9127129E0,7.480969E0,2.304812E0,2.4105655E2,3.5873916E0,5.454804E0,1.1933929E1,3.200814E1,1.3540087E0,1.5267103E0,1.0026801E0,1.2113463E0,5.5155342E1,2.70784E0,7.8946414E0,4.0497486E1,1.8121896E0,5.811623E0,1.6693456E0,2.3116083E2,9.895721E0,2.578396E0,1.0089955E0,4.4350104E0,1.0197937E0,2.566526E0,9.367403E0,1.5108681E0,1.1969717E0,3.941248E1,1.0850046E0,8.849284E0,1.0464381E0,8.222165E0,1.145238E0,1.0557323E0,3.8356747E1,5.149534E0,3.072631E0,3.4681503E1,3.6752436E0],"tree_param":{"num_deleted":"0","num_feature":"21","num_nodes":"85","size_leaf_vector":"1"}},{"base_weights":[-2.711388E-2,1.2362969E0,-3.4758544E-1,1.4484398E0,-5.1158883E-2,-4.61977E-1,3.009135E-1,-4.8177164E-2,1.6357812E0,-5.121903E-1,2.1144924E-1,1.0968635E0,-4.075506E-1,3.727106E-1,1.883574E0,-5.535559E-1,-1.9246908E-1,-1.4832596E-1,1.3608502E0,8.696888E-2,1.5463095E0,7.545373E-2,-5.4448523E-2,1.1284182E0,-8.2421675E-2,2.0654798E0,-4.4271816E-2,-5.5903023E-1,1.7545825E-2,-3.7899455E-1,1.5371585E-1,-4.9338263E-2,2.1297796E-1,2.0597933E-2,1.6907321E-1,1.2505272E-1,-4.6893563E-2,2.026849E0,3.49994E-1,3.4647413E-2,1.6300456E-1,-4.5813948E-2,5.003356E-1,2.1169848E0,4.3560125E-2,-3.6288464E-1,-5.6995984E-2,-4.5886514E-1,6.065118E-2,5.826801E-1,-3.978333E-2,6.809841E-2,2.2731331E-1,1.3247894E-1,-4.1194707E-2,1.0593268E-2,6.993378E-2,8.855578E-1,2.1847413E-1,-5.1012825E-2,4.50451E-2,5.9225507E-2,-5.474758E-2,1.3809234E-1,1.04337E-1,3.7836048E-3,1.4462663E-1,-3.8077604E-2,6.1167803E-2,-3.339249E-2,5.821083E-2],"categories":[],"categories_nodes":[],"categories_segments":[],"categories_sizes":[],"default_left":[0,0,0,0,0,0,0,0,0,0,0,0,0,0,0,0,0,0,0,0,0,0,0,0,0,0,0,0,0,0,0,0,0,0,0,0,0,0,0,0,0,0,0,0,0,0,0,0,0,0,0,0,0,0,0,0,0,0,0,0,0,0,0,0,0,0,0,0,0,0,0],"id":4,"left_children":[1,3,5,7,-1,9,11,-1,13,15,17,19,21,23,25,27,29,31,33,35,37,-1,-1,39,41,43,-1,45,-1,47,-1,-1,49,-1,-1,-1,-1,51,53,-1,-1,-1,55,57,-1,59,-1,61,-1,63,-1,-1,-1,-1,-1,-1,-1,65,-1,-1,67,-1,-1,69,-1,-1,-1,-1,-1,-1,-1],"loss_changes":[1.304459E2,2.4914299E1,1.9198439E1,2.1904915E1,0E0,7.5068436E0,2.251261E1,0E0,1.6029282E1,2.590191E0,6.7727594E0,8.352514E0,3.8213005E0,3.537363E0,1.9721542E1,8.165016E-1,8.613249E0,1.7262475E0,1.132318E0,4.9966474E0,6.695015E0,0E0,0E0,9.384012E-1,1.8017355E0,2.553009E0,0E0,1.7671204E-1,0E0,2.110052E0,0E0,0E0,1.8239985E0,0E0,0E0,0E0,0E0,1.4286575E0,4.1849747E0,0E0,0E0,0E0,1.8439806E-1,1.391922E0,0E0,7.554976E-1,0E0,2.3822646E0,0E0,8.386332E-1,0E0,0E0,0E0,0E0,0E0,0E0,0E0,1.7329597E0,0E0,0E0,1.235049E0,0E0,0E0,9.47668E-1,0E0,0E0,0E0,0E0,0E0,0E0,0E0],"parents":[2147483647,0,0,1,1,2,2,3,3,5,5,6,6,8,8,9,9,10,10,11,11,12,12,13,13,14,14,15,15,16,16,17,17,18,18,19,19,20,20,23,23,24,24,25,25,27,27,29,29,32,32,37,37,38,38,42,42,43,43,45,45,47,47,49,49,57,57,60,60,63,63],"right_children":[2,4,6,8,-1,10,12,-1,14,16,18,20,22,24,26,28,30,32,34,36,38,-1,-1,40,42,44,-1,46,-1,48,-1,-1,50,-1,-1,-1,-1,52,54,-1,-1,-1,56,58,-1,60,-1,62,-1,64,-1,-1,-1,-1,-1,-1,-1,66,-1,-1,68,-1,-1,70,-1,-1,-1,-1,-1,-1,-1],"split_conditions":[-8.2984906E-1,3.2161572E0,9.8552763E-1,-2.635121E-1,-5.1158883E-2,4.9766555E-1,-3.0488127E-1,-4.8177164E-2,7.568824E-1,1.4478626E0,9.942703E-1,8.5885346E-1,-1.1429493E0,-8.0343413E-1,1.9204328E0,8.541859E0,-2.635121E-1,2.8155765E-1,5.875218E-2,5.8299583E-1,9.326242E-1,7.545373E-2,-5.4448523E-2,-5.456556E-1,1.4692291E0,1.2336571E0,-4.4271816E-2,-1.3949528E0,1.7545825E-2,1.7472836E0,1.5371585E-1,-4.9338263E-2,-5.636348E-1,2.0597933E-2,1.6907321E-1,1.2505272E-1,-4.6893563E-2,8.882939E-1,1.1795733E0,3.4647413E-2,1.6300456E-1,-4.5813948E-2,5.8234984E-1,-4.6032783E-2,4.3560125E-2,-3.622634E-1,-5.6995984E-2,3.7369418E-1,6.065118E-2,4.608766E-1,-3.978333E-2,6.809841E-2,2.2731331E-1,1.3247894E-1,-4.1194707E-2,1.0593268E-2,6.993378E-2,1.0871688E0,2.1847413E-1,-5.1012825E-2,-1.0472964E0,5.9225507E-2,-5.474758E-2,2.1287606E0,1.04337E-1,3.7836048E-3,1.4462663E-1,-3.8077604E-2,6.1167803E-2,-3.339249E-2,5.821083E-2],"split_indices":[8,9,0,9,0,9,1,0,7,13,14,17,3,3,7,2,9,17,7,16,9,0,0,19,12,3,0,13,0,2,0,0,1,0,0,0,0,16,17,0,0,0,7,9,0,14,0,11,0,16,0,0,0,0,0,0,0,0,0,0,0,0,0,9,0,0,0,0,0,0,0],"split_type":[0,0,0,0,0,0,0,0,0,0,0,0,0,0,0,0,0,0,0,0,0,0,0,0,0,0,0,0,0,0,0,0,0,0,0,0,0,0,0,0,0,0,0,0,0,0,0,0,0,0,0,0,0,0,0,0,0,0,0,0,0,0,0,0,0,0,0,0,0,0,0],"sum_hessian":[3.2011703E2,6.4192E1,2.5592502E2,5.739698E1,6.79502E0,2.1779485E2,3.813017E1,4.9389076E0,5.2458073E1,2.0290489E2,1.4889957E1,1.7698225E1,2.0431946E1,9.014212E0,4.3443863E1,1.7901282E2,2.389208E1,1.2003639E1,2.886318E0,5.8182507E0,1.1879973E1,1.6783679E0,1.8753578E1,2.8322263E0,6.1819854E0,4.0397106E1,3.0467567E0,1.7791E2,1.102804E0,2.2271204E1,1.6208773E0,5.952885E0,6.050754E0,1.0021906E0,1.8841273E0,1.4770713E0,4.3411794E0,7.9802136E0,3.89976E0,1.7675865E0,1.0646398E0,3.8886924E0,2.293293E0,3.886993E1,1.5271765E0,1.1195422E1,1.6671458E2,2.1095871E1,1.1753329E0,3.7980099E0,2.252744E0,1.8168314E0,6.1633825E0,1.3868189E0,2.5129411E0,1.2829436E0,1.0103495E0,2.7609668E0,3.6108963E1,8.042078E0,3.1533444E0,1.1982429E0,1.9897629E1,2.5942173E0,1.2037926E0,1.524138E0,1.2368287E0,1.9876442E0,1.1657002E0,1.3776412E0,1.2165761E0],"tree_param":{"num_deleted":"0","num_feature":"21","num_nodes":"71","size_leaf_vector":"1"}},{"base_weights":[6.4724647E-3,2.8296525E0,-2.663424E-1,3.023251E-1,8.92176E-1,-3.9449838E-1,2.6834846E0,1.6574912E-1,-2.9566912E-2,-4.7318345E-1,2.564533E-1,3.0482644E-1,1.7746853E-2,-5.1092184E-1,1.09286E0,6.650426E-2,-5.2201307E-1,-4.3182224E-2,2.0394707E-1,-5.3304553E-1,-4.595406E-2,-2.800808E-2,2.2108497E-2,-3.3476087E-1,-5.385616E-2,-3.6623973E-2,2.925851E-2,-4.5768395E-2,1.8311413E-2],"categories":[],"categories_nodes":[],"categories_segments":[],"categories_sizes":[],"default_left":[0,0,0,0,0,0,0,0,0,0,0,0,0,0,0,0,0,0,0,0,0,0,0,0,0,0,0,0,0],"id":5,"left_children":[1,3,5,-1,7,9,11,-1,-1,13,-1,-1,-1,15,17,-1,19,21,-1,23,25,-1,-1,27,-1,-1,-1,-1,-1],"loss_changes":[1.6258295E2,4.2797546E0,7.38351E1,0E0,3.3158848E0,4.4372894E1,6.9034767E0,0E0,0E0,1.1279694E1,0E0,0E0,0E0,2.6664848E0,5.0212154E0,0E0,9.0366745E-1,2.5376055E-1,0E0,8.522034E-3,6.59824E-1,0E0,0E0,5.4946E-1,0E0,0E0,0E0,0E0,0E0],"parents":[2147483647,0,0,1,1,2,2,4,4,5,5,6,6,9,9,13,13,14,14,16,16,17,17,19,19,20,20,23,23],"right_children":[2,4,6,-1,8,10,12,-1,-1,14,-1,-1,-1,16,18,-1,20,22,-1,24,26,-1,-1,28,-1,-1,-1,-1,-1],"split_conditions":[-1.6427616E0,2.2282434E0,3.2161572E0,3.023251E-1,-1.4407715E0,1.9204328E0,-4.6391895E-1,1.6574912E-1,-2.9566912E-2,3.1221755E0,2.564533E-1,3.0482644E-1,1.7746853E-2,-1.7983292E0,6.987049E-1,6.650426E-2,1.7459003E0,1.9050862E0,2.0394707E-1,-1.346613E0,-1.3890758E-1,-2.800808E-2,2.2108497E-2,-5.317162E-2,-5.385616E-2,-3.6623973E-2,2.925851E-2,-4.5768395E-2,1.8311413E-2],"split_indices":[17,13,9,0,12,7,3,0,0,6,0,0,0,16,7,0,7,19,0,11,2,0,0,2,0,0,0,0,0],"split_type":[0,0,0,0,0,0,0,0,0,0,0,0,0,0,0,0,0,0,0,0,0,0,0,0,0,0,0,0,0],"sum_hessian":[2.0911183E2,1.7600796E1,1.9151103E2,1.5492348E1,2.1084487E0,1.843674E2,7.143624E0,1.0418317E0,1.0666171E0,1.8041013E2,3.9572885E0,6.04703E0,1.0965939E0,1.7682281E2,3.5873108E0,1.1012385E0,1.7572157E2,2.0642974E0,1.5230134E0,1.7162454E2,4.0970345E0,1.0569607E0,1.0073369E0,6.314806E0,1.6530972E2,2.0632284E0,2.0338063E0,5.19738E0,1.1174257E0],"tree_param":{"num_deleted":"0","num_feature":"21","num_nodes":"29","size_leaf_vector":"1"}},{"base_weights":[2.6928687E-2,4.361062E-1,-7.565508E-1,4.7599542E-1,-8.035725E-1,-9.5001876E-1,1.2177496E-1,5.3599674E-1,-1.9990794E-1,1.3271003E-2,-1.109538E0,-1.2626523E0,-4.7378585E-1,5.1687026E-1,-1.21985875E-1,-7.716169E-1,5.4995203E-1,-5.978749E-1,3.7306523E-1,-1.2298431E-1,-3.8411755E-2,-7.7175057E-1,-1.3508624E-1,-1.300207E-1,-8.490553E-2,5.9173446E-2,3.754123E-2,-7.961902E-3,-1.1333229E-1,5.629588E-1,3.525738E-3,4.128937E-2,-7.811615E-1,-6.53805E-2,5.524516E-2,-1.285502E-1,-1.2623887E-1,4.4448933E-1,-1.0904732E0,-5.3129204E-2,4.3617442E-2,5.733102E-1,5.312661E-2,5.0335944E-2,-8.4661566E-2,-9.063001E-1,3.282452E-2,5.000177E-2,-1.1762985E-1,5.102716E-1,-7.36805E-2,-2.0849941E-2,-1.227687E0,5.770108E-1,-1.7719317E-2,-5.1567864E-2,4.703438E-2,-3.0511427E-1,-1.1589916E0,5.884848E-2,1.8349384E-1,-5.5913936E-2,3.7006874E-2,-1.3437337E-1,-3.3192147E-2,4.6734285E-1,6.0103583E-1,4.1694693E-2,-9.369032E-2,-2.742664E-2,-1.3793465E-1,4.775893E-2,-3.0642325E-2,5.3068932E-2,1.1304694E-2,6.0562607E-2,2.587845E-2],"categories":[],"categories_nodes":[],"categories_segments":[],"categories_sizes":[],"default_left":[0,0,0,0,0,0,0,0,0,0,0,0,0,0,0,0,0,0,0,0,0,0,0,0,0,0,0,0,0,0,0,0,0,0,0,0,0,0,0,0,0,0,0,0,0,0,0,0,0,0,0,0,0,0,0,0,0,0,0,0,0,0,0,0,0,0,0,0,0,0,0,0,0,0,0,0,0],"id":6,"left_children":[1,3,5,7,9,11,13,15,17,-1,19,21,23,25,-1,27,29,31,33,-1,-1,35,-1,-1,37,-1,39,-1,-1,41,43,-1,45,-1,-1,-1,47,49,51,-1,-1,53,55,-1,-1,57,-1,-1,-1,59,61,-1,63,65,-1,-1,-1,67,69,-1,71,-1,-1,-1,-1,73,75,-1,-1,-1,-1,-1,-1,-1,-1,-1,-1],"loss_changes":[1.4594734E2,1.5169262E1,2.6658836E1,1.1881569E1,2.9242349E0,1.8477142E1,1.604624E1,5.2953568E0,5.786904E0,0E0,1.7454624E-1,2.2807007E0,1.6722008E1,8.0918217E-1,0E0,7.194445E-1,1.8792725E0,3.0613093E0,2.3168983E0,0E0,0E0,4.4879923E0,0E0,0E0,2.0014185E1,0E0,1.1835471E0,0E0,0E0,1.3339615E0,3.4688485E0,0E0,2.082827E0,0E0,0E0,0E0,5.403953E0,8.81021E-1,1.3102818E0,0E0,0E0,8.0571747E-1,1.7250259E0,0E0,0E0,1.4423494E0,0E0,0E0,0E0,4.5640898E-1,9.956243E-1,0E0,6.96949E-1,3.8381195E-1,0E0,0E0,0E0,2.6058726E0,1.174756E0,0E0,9.701686E-1,0E0,0E0,0E0,0E0,1.0583897E0,1.628952E-1,0E0,0E0,0E0,0E0,0E0,0E0,0E0,0E0,0E0,0E0],"parents":[2147483647,0,0,1,1,2,2,3,3,4,4,5,5,6,6,7,7,8,8,10,10,11,11,12,12,13,13,15,15,16,16,17,17,18,18,21,21,24,24,26,26,29,29,30,30,32,32,36,36,37,37,38,38,41,41,42,42,45,45,49,49,50,50,52,52,53,53,57,57,58,58,60,60,65,65,66,66],"right_children":[2,4,6,8,10,12,14,16,18,-1,20,22,24,26,-1,28,30,32,34,-1,-1,36,-1,-1,38,-1,40,-1,-1,42,44,-1,46,-1,-1,-1,48,50,52,-1,-1,54,56,-1,-1,58,-1,-1,-1,60,62,-1,64,66,-1,-1,-1,68,70,-1,72,-1,-1,-1,-1,74,76,-1,-1,-1,-1,-1,-1,-1,-1,-1,-1],"split_conditions":[7.568824E-1,3.1221755E0,-3.0488127E-1,1.4015547E0,-1.1047982E0,2.1511146E-1,3.1221755E0,-2.286806E0,-3.0488127E-1,1.3271003E-2,-1.3861858E0,-1.5477245E-1,-1.6427616E0,7.305655E-1,-1.21985875E-1,2.1511146E-1,1.595375E0,-1.12898774E-1,-1.1429493E0,-1.2298431E-1,-3.8411755E-2,7.0756815E-2,-1.3508624E-1,-1.300207E-1,2.1741368E-1,5.9173446E-2,1.2223026E0,-7.961902E-3,-1.1333229E-1,1.5306923E0,4.4649106E-1,4.128937E-2,1.7986573E0,-6.53805E-2,5.524516E-2,-1.285502E-1,6.440555E-1,-3.173763E-2,-4.4734764E-1,-5.3129204E-2,4.3617442E-2,3.7073379E0,-1.2440374E-1,5.0335944E-2,-8.4661566E-2,-6.146906E-1,3.282452E-2,5.000177E-2,-1.1762985E-1,-1.6745017E-1,1.04777E0,-2.0849941E-2,-5.636348E-1,-4.901111E-1,-1.7719317E-2,-5.1567864E-2,4.703438E-2,1.5840002E0,5.4325655E-2,5.884848E-2,9.86994E-1,-5.5913936E-2,3.7006874E-2,-1.3437337E-1,-3.3192147E-2,9.493536E-1,1.5002933E0,4.1694693E-2,-9.369032E-2,-2.742664E-2,-1.3793465E-1,4.775893E-2,-3.0642325E-2,5.3068932E-2,1.1304694E-2,6.0562607E-2,2.587845E-2],"split_indices":[7,6,1,12,7,3,6,16,1,0,17,9,17,17,0,3,0,13,3,0,0,0,0,0,17,0,7,0,0,9,10,0,0,0,0,0,16,2,13,0,0,14,3,0,0,19,0,0,0,17,7,0,1,8,0,0,0,18,13,0,9,0,0,0,0,16,17,0,0,0,0,0,0,0,0,0,0],"split_type":[0,0,0,0,0,0,0,0,0,0,0,0,0,0,0,0,0,0,0,0,0,0,0,0,0,0,0,0,0,0,0,0,0,0,0,0,0,0,0,0,0,0,0,0,0,0,0,0,0,0,0,0,0,0,0,0,0,0,0,0,0,0,0,0,0,0,0,0,0,0,0,0,0,0,0,0,0],"sum_hessian":[4.5322803E2,2.980255E2,1.5520248E2,2.893317E2,8.693812E0,1.27120224E2,2.808227E1,2.6593143E2,2.3400272E1,2.280754E0,6.4130588E0,7.574465E1,5.137557E1,2.216862E1,5.913651E0,2.2348356E0,2.636966E2,1.378337E1,9.616903E0,4.904358E0,1.5087008E0,1.3022367E1,6.2722286E1,1.5689623E1,3.5685944E1,1.8971104E1,3.197516E0,1.1859864E0,1.0488493E0,2.5753613E2,6.1604767E0,1.9234458E0,1.1859924E1,1.036863E0,8.58004E0,6.6991696E0,6.3231964E0,2.3743713E1,1.1942231E1,1.1803792E0,2.0171366E0,2.5228925E2,5.2468767E0,4.1364155E0,2.024061E0,1.0822272E1,1.0376515E0,4.289033E0,2.0341637E0,2.1082506E1,2.661206E0,1.9469941E0,9.995237E0,2.5128137E2,1.0078717E0,2.1202617E0,3.126615E0,3.8559425E0,6.9663305E0,1.6364777E1,4.7177296E0,1.1466947E0,1.5145113E0,8.406126E0,1.5891111E0,4.883127E1,2.024501E2,1.9581072E0,1.8978353E0,1.8366866E0,5.129644E0,2.963759E0,1.7539706E0,4.1002365E1,7.8289037E0,1.9901146E2,3.4386408E0],"tree_param":{"num_deleted":"0","num_feature":"21","num_nodes":"77","size_leaf_vector":"1"}},{"base_weights":[-2.985749E-4,9.1955006E-1,-3.7838092E-1,1.0645628E0,-5.2403904E-2,-4.379399E-1,9.777718E-1,3.2277435E-1,1.3332064E0,-4.9632707E-1,-4.9800985E-2,1.7004898E-1,-4.296452E-2,-7.401466E-2,1.1557913E0,1.4530342E0,-1.4493026E-1,-5.358388E-1,6.0917467E-2,-4.0701315E-1,8.837666E-1,-4.895196E-2,2.0532681E-1,1.4191362E0,4.34567E-3,4.236974E-1,1.5993885E0,-4.5985226E-2,4.894488E-2,-5.4687345E-1,3.2805018E-2,1.592285E-1,-5.1222082E-2,-4.827002E-1,-4.1098185E-3,1.4671493E0,-1.7231135E-1,-7.5023465E-2,1.0490556E-1,1.9461934E-1,4.2304347E-4,-2.3082335E-2,1.20927356E-1,1.6398628E0,4.9668387E-1,-5.5239683E-1,-4.0377695E-3,-5.341766E-2,1.652606E-2,7.000677E-2,-4.0947933E-2,1.9562393E-2,1.7083597E-1,-3.734466E-2,2.0641003E-2,-3.551314E-1,6.3686095E-2,1.0413215E-1,-4.633608E-2,1.6654955E-1,6.4950034E-2,1.0511448E-1,-3.136265E-2,-5.580048E-1,-2.2321597E-1,-4.7854222E-2,2.0210406E-2,-5.6327697E-2,-3.3571237E-1,-4.050079E-2,1.9505335E-2,-4.740591E-2,1.6003625E-2],"categories":[],"categories_nodes":[],"categories_segments":[],"categories_sizes":[],"default_left":[0,0,0,0,0,0,0,0,0,0,0,0,0,0,0,0,0,0,0,0,0,0,0,0,0,0,0,0,0,0,0,0,0,0,0,0,0,0,0,0,0,0,0,0,0,0,0,0,0,0,0,0,0,0,0,0,0,0,0,0,0,0,0,0,0,0,0,0,0,0,0,0,0],"id":7,"left_children":[1,3,5,7,-1,9,11,13,15,17,19,-1,-1,21,23,25,27,29,31,33,35,-1,37,39,-1,41,43,-1,-1,45,-1,-1,-1,47,49,51,53,55,-1,-1,-1,57,-1,59,61,63,-1,-1,-1,-1,-1,-1,-1,-1,-1,65,-1,-1,-1,-1,-1,-1,-1,67,69,-1,-1,-1,71,-1,-1,-1,-1],"loss_changes":[1.1077615E2,1.9981422E1,1.8661427E1,1.6437523E1,0E0,4.891491E0,1.0705133E1,7.9601736E0,1.1160484E1,4.181999E0,1.0189885E1,0E0,0E0,2.082627E0,2.2076035E0,7.9508743E0,1.3328815E0,1.8579292E0,1.2555276E1,6.6903305E-1,5.472967E0,0E0,2.6608543E0,4.63943E0,0E0,3.007841E0,1.4075012E0,0E0,0E0,4.6512604E-1,0E0,0E0,0E0,7.0587254E-1,1.5679156E0,1.3720207E0,3.7491632E-1,2.0461395E0,0E0,0E0,0E0,3.4787188E0,0E0,1.2632751E-1,1.7660974E0,1.9347E-1,0E0,0E0,0E0,0E0,0E0,0E0,0E0,0E0,0E0,5.912902E-1,0E0,0E0,0E0,0E0,0E0,0E0,0E0,8.640289E-3,4.2515963E-1,0E0,0E0,0E0,5.1372486E-1,0E0,0E0,0E0,0E0],"parents":[2147483647,0,0,1,1,2,2,3,3,5,5,6,6,7,7,8,8,9,9,10,10,13,13,14,14,15,15,16,16,17,17,18,18,19,19,20,20,22,22,23,23,25,25,26,26,29,29,33,33,34,34,35,35,36,36,37,37,41,41,43,43,44,44,45,45,55,55,63,63,64,64,68,68],"right_children":[2,4,6,8,-1,10,12,14,16,18,20,-1,-1,22,24,26,28,30,32,34,36,-1,38,40,-1,42,44,-1,-1,46,-1,-1,-1,48,50,52,54,56,-1,-1,-1,58,-1,60,62,64,-1,-1,-1,-1,-1,-1,-1,-1,-1,66,-1,-1,-1,-1,-1,-1,-1,68,70,-1,-1,-1,72,-1,-1,-1,-1],"split_conditions":[-7.1660304E-1,3.2161572E0,1.595375E0,7.568824E-1,-5.2403904E-2,8.337049E-3,-4.6127744E-2,1.5369035E0,1.8622553E0,1.2437173E0,9.942703E-1,1.7004898E-1,-4.296452E-2,1.5557852E-1,8.9414185E-1,-1.5477245E-1,1.3338802E0,8.541859E0,-3.0488127E-1,1.8025415E0,-5.636348E-1,-4.895196E-2,-7.4605614E-2,2.2155008E-1,4.34567E-3,-1.17473595E-1,-3.0488127E-1,-4.5985226E-2,4.894488E-2,3.473498E0,3.2805018E-2,1.592285E-1,-5.1222082E-2,4.8203444E-1,6.909731E-1,-7.538522E-2,7.051151E-1,1.965651E0,1.0490556E-1,1.9461934E-1,4.2304347E-4,2.332306E-1,1.20927356E-1,8.9414185E-1,-7.013968E-1,-1.00402616E-1,-4.0377695E-3,-5.341766E-2,1.652606E-2,7.000677E-2,-4.0947933E-2,1.9562393E-2,1.7083597E-1,-3.734466E-2,2.0641003E-2,1.4353919E0,6.3686095E-2,1.0413215E-1,-4.633608E-2,1.6654955E-1,6.4950034E-2,1.0511448E-1,-3.136265E-2,3.3548207E0,4.8794985E-1,-4.7854222E-2,2.0210406E-2,-5.6327697E-2,-1.3861858E0,-4.050079E-2,1.9505335E-2,-4.740591E-2,1.6003625E-2],"split_indices":[8,9,0,7,0,9,1,12,7,17,14,0,0,16,3,9,12,2,1,9,1,0,2,13,0,2,1,0,0,8,0,0,0,10,12,18,16,9,0,0,0,10,0,3,14,9,0,0,0,0,0,0,0,0,0,12,0,0,0,0,0,0,0,19,12,0,0,0,17,0,0,0,0],"split_type":[0,0,0,0,0,0,0,0,0,0,0,0,0,0,0,0,0,0,0,0,0,0,0,0,0,0,0,0,0,0,0,0,0,0,0,0,0,0,0,0,0,0,0,0,0,0,0,0,0,0,0,0,0,0,0,0,0,0,0,0,0,0,0,0,0,0,0,0,0,0,0,0,0],"sum_hessian":[3.1652457E2,9.178522E1,2.2473935E2,8.3645355E1,8.139864E0,2.1593314E2,8.806199E0,2.2824108E1,6.082125E1,1.8745572E2,2.8477419E1,5.6808243E0,3.125375E0,1.6077229E1,6.7468796E0,5.627611E1,4.545139E0,1.7508E2,1.2375722E1,2.1004475E1,7.472945E0,6.16087E0,9.916358E0,5.232313E0,1.5145662E0,7.4903193E0,4.8785793E1,3.221178E0,1.3239608E0,1.7323419E2,1.8458049E0,2.8861182E0,9.489604E0,1.7515972E1,3.488502E0,4.5630503E0,2.909895E0,8.1270275E0,1.7893299E0,3.5386574E0,1.693656E0,5.3934984E0,2.0968204E0,4.6588646E1,2.197144E0,1.712758E2,1.9583998E0,1.6389532E1,1.126441E0,1.0089109E0,2.4795911E0,1.0163635E0,3.5466866E0,1.9096344E0,1.0002606E0,6.1918397E0,1.9351883E0,1.1787193E0,4.2147794E0,4.474875E1,1.8399001E0,1.1280528E0,1.0690913E0,1.6772331E2,3.5524807E0,5.184787E0,1.0070528E0,1.6233917E2,5.384148E0,2.4983368E0,1.054144E0,4.2436414E0,1.1405064E0],"tree_param":{"num_deleted":"0","num_feature":"21","num_nodes":"73","size_leaf_vector":"1"}},{"base_weights":[3.0087152E-2,2.118144E0,-2.2577126E-1,2.1871057E-1,7.677887E-2,-3.6638606E-1,2.2618829E-1,-4.4827107E-1,2.1828464E-1,-5.1168454E-1,1.4939866E0,-5.231553E-1,-7.093664E-2,2.144711E-1,2.7127493E-2,1.0750139E-2,-5.292507E-1,-3.794925E-2,2.7547425E-2,-5.351315E-2,-3.3496732E-1,-4.594314E-2,2.202907E-2],"categories":[],"categories_nodes":[],"categories_segments":[],"categories_sizes":[],"default_left":[0,0,0,0,0,0,0,0,0,0,0,0,0,0,0,0,0,0,0,0,0,0,0],"id":8,"left_children":[1,3,5,-1,-1,7,-1,9,-1,11,13,15,17,-1,-1,-1,19,-1,-1,-1,21,-1,-1],"loss_changes":[1.0951807E2,4.0444183E-1,6.474593E1,0E0,0E0,3.7260117E1,0E0,2.1607655E1,0E0,7.951813E-1,3.8783264E0,6.730728E-1,6.7453E-1,0E0,0E0,0E0,2.33078E-3,0E0,0E0,0E0,6.086605E-1,0E0,0E0],"parents":[2147483647,0,0,1,1,2,2,5,5,7,7,9,9,10,10,11,11,12,12,16,16,20,20],"right_children":[2,4,6,-1,-1,8,-1,10,-1,12,14,16,18,-1,-1,-1,20,-1,-1,-1,22,-1,-1],"split_conditions":[-1.7069056E0,1.9656204E0,3.2161572E0,2.1871057E-1,7.677887E-2,1.9204328E0,2.2618829E-1,3.1221755E0,2.1828464E-1,1.7459003E0,-3.328984E-1,-1.67621E0,-6.146906E-1,2.144711E-1,2.7127493E-2,1.0750139E-2,1.3968351E0,-3.794925E-2,2.7547425E-2,-5.351315E-2,1.0512854E0,-4.594314E-2,2.202907E-2],"split_indices":[17,11,9,0,0,7,0,6,0,7,16,16,19,0,0,0,7,0,0,0,17,0,0],"split_type":[0,0,0,0,0,0,0,0,0,0,0,0,0,0,0,0,0,0,0,0,0,0,0],"sum_hessian":[2.0310011E2,2.1375595E1,1.8172452E2,1.9747456E1,1.6281395E0,1.7280919E2,8.91533E0,1.6822957E2,4.579621E0,1.636239E2,4.605663E0,1.5929126E2,4.332632E0,2.513776E0,2.091887E0,1.3655869E0,1.5792567E2,2.2410135E0,2.0916185E0,1.5158298E2,6.3427033E0,5.322268E0,1.0204351E0],"tree_param":{"num_deleted":"0","num_feature":"21","num_nodes":"23","size_leaf_vector":"1"}},{"base_weights":[-3.318224E-2,3.7444755E-1,-6.8305326E-1,4.3313164E-1,-8.5314184E-1,-9.939036E-1,-2.759995E-1,4.5360455E-1,-1.2134998E-1,8.252799E-3,-1.0307333E0,-1.0810435E0,-3.0469003E-1,9.014732E-2,-1.1266242E0,5.37188E-1,1.523946E-1,-1.50418505E-2,-1.110577E-1,-1.1111804E0,1.3754395E-2,3.804303E-1,-7.882841E-1,-9.632652E-2,2.6285863E-1,-1.1743803E-1,-1.1171988E-2,-5.757577E-2,5.5071336E-1,-4.735284E-1,5.3312916E-1,-1.1602974E0,-7.508433E-1,5.1661897E-2,-7.7789514E-3,-1.0854329E-1,8.988329E-3,4.882479E-1,-3.669342E-1,5.647063E-1,-1.5788302E-1,9.801889E-3,-8.172245E-1,5.583042E-1,-1.0038619E-2,-1.1745441E-1,-4.3279156E-2,2.2535591E-1,-1.0636925E-1,-5.4948837E-2,5.6110495E-1,-1.0396911E-1,3.762041E-1,5.740186E-1,-6.1572608E-2,-7.7122554E-2,4.11667E-2,-5.3053963E-1,3.928466E-1,3.3433322E-2,-9.6192914E-1,-8.968467E-3,5.8511574E-2,4.0722463E-2,-8.923628E-3,5.8714736E-2,2.8245968E-1,5.006991E-2,-1.0937055E-2,5.8334434E-1,1.4061677E-1,3.757942E-2,-5.8566917E-2,3.32085E-2,-9.1863655E-2,5.1425528E-2,-1.1820901E-2,-1.0634587E0,-2.8055174E-2,4.5210306E-2,-1.741827E-2,4.474333E-2,5.981493E-2,-3.5869543E-2,4.5396037E-2,-1.3649192E-1,-5.4879613E-2],"categories":[],"categories_nodes":[],"categories_segments":[],"categories_sizes":[],"default_left":[0,0,0,0,0,0,0,0,0,0,0,0,0,0,0,0,0,0,0,0,0,0,0,0,0,0,0,0,0,0,0,0,0,0,0,0,0,0,0,0,0,0,0,0,0,0,0,0,0,0,0,0,0,0,0,0,0,0,0,0,0,0,0,0,0,0,0,0,0,0,0,0,0,0,0,0,0,0,0,0,0,0,0,0,0,0,0],"id":9,"left_children":[1,3,5,7,9,11,13,15,-1,-1,17,19,21,23,25,27,29,-1,-1,31,-1,33,35,-1,37,-1,-1,-1,39,41,43,45,47,-1,-1,-1,-1,49,51,53,55,57,59,61,-1,-1,-1,63,-1,-1,65,-1,67,69,71,-1,-1,73,75,-1,77,-1,-1,-1,-1,-1,79,-1,-1,81,83,-1,-1,-1,-1,-1,-1,85,-1,-1,-1,-1,-1,-1,-1,-1,-1],"loss_changes":[1.17738785E2,2.0049744E1,2.1401169E1,9.362076E0,2.212057E0,5.480942E0,2.3634459E1,6.436306E0,0E0,0E0,5.943394E-1,3.2925491E0,4.359018E0,1.0031814E1,9.7439194E-1,3.3618164E0,1.3987214E1,0E0,0E0,6.073456E-1,0E0,3.9863193E-1,2.0566134E0,0E0,6.845375E0,0E0,0E0,0E0,2.075714E0,3.7170587E0,6.3508415E-1,2.3464966E-1,4.165684E0,0E0,0E0,0E0,0E0,2.9556093E0,6.8645835E0,1.1824608E0,1.9458202E0,2.3334544E0,2.4979658E0,6.617851E-1,0E0,0E0,0E0,2.6205435E-1,0E0,0E0,7.515907E-2,0E0,4.7106552E-1,7.016983E-1,1.0876763E0,0E0,0E0,1.873353E0,4.6921754E-1,0E0,5.2215576E-1,0E0,0E0,0E0,0E0,0E0,4.4793317E-1,0E0,0E0,1.1367798E-1,1.0080222E0,0E0,0E0,0E0,0E0,0E0,0E0,7.968693E-1,0E0,0E0,0E0,0E0,0E0,0E0,0E0,0E0,0E0],"parents":[2147483647,0,0,1,1,2,2,3,3,4,4,5,5,6,6,7,7,10,10,11,11,12,12,13,13,14,14,15,15,16,16,19,19,21,21,22,22,24,24,28,28,29,29,30,30,31,31,32,32,37,37,38,38,39,39,40,40,41,41,42,42,43,43,47,47,50,50,52,52,53,53,54,54,57,57,58,58,60,60,66,66,69,69,70,70,77,77],"right_children":[2,4,6,8,10,12,14,16,-1,-1,18,20,22,24,26,28,30,-1,-1,32,-1,34,36,-1,38,-1,-1,-1,40,42,44,46,48,-1,-1,-1,-1,50,52,54,56,58,60,62,-1,-1,-1,64,-1,-1,66,-1,68,70,72,-1,-1,74,76,-1,78,-1,-1,-1,-1,-1,80,-1,-1,82,84,-1,-1,-1,-1,-1,-1,86,-1,-1,-1,-1,-1,-1,-1,-1,-1],"split_conditions":[7.568824E-1,3.1221755E0,-8.2984906E-1,2.7811985E0,-1.3956858E0,5.546267E-1,3.1221755E0,8.5885346E-1,-1.2134998E-1,8.252799E-3,1.9396059E-1,-4.6127744E-2,-4.4734764E-1,-1.203911E0,1.11298E0,-2.286806E0,-4.6127744E-2,-1.50418505E-2,-1.110577E-1,1.9768721E-1,1.3754395E-2,3.7568042E-1,-5.636348E-1,-9.632652E-2,1.9970179E-2,-1.1743803E-1,-1.1171988E-2,-5.757577E-2,2.2616994E0,-5.456556E-1,9.86994E-1,2.4531305E-1,-1.0898508E0,5.1661897E-2,-7.7789514E-3,-1.0854329E-1,8.988329E-3,-2.1559134E0,-5.636348E-1,2.2522027E0,2.1511146E-1,1.3920925E0,-1.7551856E-1,-1.0405303E0,-1.0038619E-2,-1.1745441E-1,-4.3279156E-2,-4.6391895E-1,-1.0636925E-1,-5.4948837E-2,9.86994E-1,-1.0396911E-1,-3.173763E-2,1.5306923E0,1.05103E0,-7.7122554E-2,4.11667E-2,-5.760286E-2,-6.020025E-1,3.3433322E-2,-3.0488127E-1,-8.968467E-3,5.8511574E-2,4.0722463E-2,-8.923628E-3,5.8714736E-2,-7.538522E-2,5.006991E-2,-1.0937055E-2,-1.1429493E0,2.740392E-1,3.757942E-2,-5.8566917E-2,3.32085E-2,-9.1863655E-2,5.1425528E-2,-1.1820901E-2,1.2546517E0,-2.8055174E-2,4.5210306E-2,-1.741827E-2,4.474333E-2,5.981493E-2,-3.5869543E-2,4.5396037E-2,-1.3649192E-1,-5.4879613E-2],"split_indices":[7,6,8,9,7,3,6,17,0,0,11,1,13,12,20,16,1,0,0,10,0,0,1,0,10,0,0,0,2,19,9,11,11,0,0,0,0,17,1,3,3,0,10,14,0,0,0,3,0,0,9,0,2,9,4,0,0,7,11,0,1,0,0,0,0,0,18,0,0,3,0,0,0,0,0,0,0,16,0,0,0,0,0,0,0,0,0],"split_type":[0,0,0,0,0,0,0,0,0,0,0,0,0,0,0,0,0,0,0,0,0,0,0,0,0,0,0,0,0,0,0,0,0,0,0,0,0,0,0,0,0,0,0,0,0,0,0,0,0,0,0,0,0,0,0,0,0,0,0,0,0,0,0,0,0,0,0,0,0,0,0,0,0,0,0,0,0,0,0,0,0,0,0,0,0,0,0],"sum_hessian":[4.4248813E2,2.7218478E2,1.7030334E2,2.6038446E2,1.1800334E1,9.5745056E1,7.455829E1,2.579024E2,2.4820294E0,1.9678241E0,9.83251E0,8.449367E1,1.1251386E1,5.2747456E1,2.1810833E1,2.0126852E2,5.6633892E1,1.0574565E0,8.775053E0,8.25405E1,1.9531698E0,4.743902E0,6.507483E0,6.785227E0,4.5962227E1,2.068058E1,1.1302533E0,1.9174898E0,1.9935104E2,2.1327696E1,3.53062E1,7.068545E1,1.1855055E1,3.5587497E0,1.1851525E0,4.6858826E0,1.8216003E0,3.4014072E1,1.1948153E1,1.9568973E2,3.6613107E0,9.267105E0,1.2060591E1,3.4070984E1,1.235214E0,6.8725136E1,1.9603127E0,2.9450698E0,8.909985E0,1.8022212E0,3.2211853E1,6.061591E0,5.886562E0,1.9290482E2,2.784905E0,1.5923882E0,2.0689225E0,3.6845045E0,5.5826006E0,1.2000613E0,1.0860529E1,1.2605534E0,3.281043E1,1.6796155E0,1.2654543E0,2.844611E1,3.7657423E0,4.6605186E0,1.2260433E0,1.8850275E2,4.402076E0,1.6723065E0,1.1125984E0,1.1880795E0,2.496425E0,4.505898E0,1.0767025E0,8.964077E0,1.8964521E0,2.7529554E0,1.0127867E0,2.1583742E1,1.66919E2,1.6415441E0,2.760532E0,4.6110907E0,4.3529863E0],"tree_param":{"num_deleted":"0","num_feature":"21","num_nodes":"87","size_leaf_vector":"1"}},{"base_weights":[1.27047645E-2,-4.2551473E-1,7.031448E-1,-4.7250226E-1,5.282436E-1,4.9125303E-2,1.0072942E0,-5.1024057E-2,-5.057699E-1,1.1360502E0,-2.5007448E-1,-3.463033E-1,7.2279006E-1,1.1612482E0,-5.1440444E-2,-2.757645E-1,8.087482E-2,-5.1680344E-1,4.0616196E-2,4.0097326E-2,1.3348436E-1,-4.136398E-2,1.5286313E-2,-4.1752607E-1,6.423922E-2,1.0581756E0,-2.3150219E-1,1.2176852E0,-4.1360933E-2,-4.932601E-2,5.393463E-2,-5.282432E-1,2.1735328E-1,-4.964038E-1,6.323778E-2,1.4986236E0,2.8015116E-1,-4.0515736E-2,1.7477404E-2,7.211333E-1,1.3943331E0,7.43986E-2,-4.235154E-2,-5.449547E-1,-2.0583178E-1,-3.0067489E-2,6.2491532E-2,-5.34646E-2,-2.2180733E-1,1.8031602E-1,9.880909E-3,-3.5316493E-2,6.4838165E-1,1.0299491E0,-2.9997957E-1,1.4214865E0,5.0162297E-2,-5.511107E-1,-1.0476777E-1,7.165065E-2,-4.9066603E-2,1.932384E-2,-4.037133E-2,9.2576675E-2,9.646453E-3,1.2742703E-1,-1.827859E-1,1.6878419E-2,-4.4554632E-2,1.4410378E-1,4.12316E-2,-5.568264E-2,-3.2103977E-1,-3.2818526E-2,2.0278934E-2,-3.8493253E-2,1.6113069E-2,-4.684886E-2,1.922869E-2],"categories":[],"categories_nodes":[],"categories_segments":[],"categories_sizes":[],"default_left":[0,0,0,0,0,0,0,0,0,0,0,0,0,0,0,0,0,0,0,0,0,0,0,0,0,0,0,0,0,0,0,0,0,0,0,0,0,0,0,0,0,0,0,0,0,0,0,0,0,0,0,0,0,0,0,0,0,0,0,0,0,0,0,0,0,0,0,0,0,0,0,0,0,0,0,0,0,0,0],"id":10,"left_children":[1,3,5,7,9,11,13,15,17,19,21,23,25,27,-1,29,-1,31,-1,-1,-1,-1,-1,33,-1,35,37,39,-1,-1,41,43,45,47,-1,49,51,-1,-1,53,55,-1,-1,57,59,-1,-1,-1,61,-1,-1,-1,63,65,67,69,-1,71,73,-1,-1,-1,-1,-1,-1,-1,75,-1,-1,-1,-1,-1,77,-1,-1,-1,-1,-1,-1],"loss_changes":[9.334479E1,8.708187E0,2.377665E1,2.503849E0,4.699813E0,1.0658562E1,1.9738686E1,2.9881759E0,1.8912506E0,2.5702E-1,3.8700232E-1,2.0495298E0,4.9739914E0,7.1257324E0,0E0,8.93604E-1,0E0,1.5051422E0,0E0,0E0,0E0,0E0,0E0,2.3182359E0,0E0,3.388238E0,3.9979118E-1,5.325905E0,0E0,0E0,2.1954017E0,7.6766205E-1,8.7373257E-1,1.23690605E-1,0E0,2.74868E0,1.4525901E0,0E0,0E0,6.9347067E0,5.5155945E-1,0E0,0E0,3.6130524E-1,2.8877792E0,0E0,0E0,0E0,4.1997576E-1,0E0,0E0,0E0,4.7261393E-1,5.0798187E0,4.6097302E-1,3.9403534E-1,0E0,2.148056E-2,2.9794842E-1,0E0,0E0,0E0,0E0,0E0,0E0,0E0,3.135205E-1,0E0,0E0,0E0,0E0,0E0,5.4822063E-1,0E0,0E0,0E0,0E0,0E0,0E0],"parents":[2147483647,0,0,1,1,2,2,3,3,4,4,5,5,6,6,7,7,8,8,9,9,10,10,11,11,12,12,13,13,15,15,17,17,23,23,25,25,26,26,27,27,30,30,31,31,32,32,33,33,35,35,36,36,39,39,40,40,43,43,44,44,48,48,52,52,53,53,54,54,55,55,57,57,58,58,66,66,72,72],"right_children":[2,4,6,8,10,12,14,16,18,20,22,24,26,28,-1,30,-1,32,-1,-1,-1,-1,-1,34,-1,36,38,40,-1,-1,42,44,46,48,-1,50,52,-1,-1,54,56,-1,-1,58,60,-1,-1,-1,62,-1,-1,-1,64,66,68,70,-1,72,74,-1,-1,-1,-1,-1,-1,-1,76,-1,-1,-1,-1,-1,78,-1,-1,-1,-1,-1,-1],"split_conditions":[-1.00402616E-1,1.4015547E0,5.8234984E-1,-7.1660304E-1,-3.0488127E-1,8.5885346E-1,3.2161572E0,1.0871688E0,1.6970161E0,2.510023E-1,1.7510723E-1,2.4549794E0,-4.6127744E-2,1.9204328E0,-5.1440444E-2,-7.013968E-1,8.087482E-2,8.541859E0,4.0616196E-2,4.0097326E-2,1.3348436E-1,-4.136398E-2,1.5286313E-2,-1.17473595E-1,6.423922E-2,6.6077507E-1,-5.7632625E-1,3.7568042E-1,-4.1360933E-2,-4.932601E-2,-5.636348E-1,1.2437173E0,5.291027E-1,4.8203444E-1,6.323778E-2,2.9146227E-1,2.3328474E-1,-4.0515736E-2,1.7477404E-2,-8.2984906E-1,1.5148591E0,7.43986E-2,-4.235154E-2,3.3602521E0,-3.0488127E-1,-3.0067489E-2,6.2491532E-2,-5.34646E-2,-2.682115E-1,1.8031602E-1,9.880909E-3,-3.5316493E-2,-8.2984906E-1,5.546267E-1,-1.8177557E-1,2.6833823E-1,5.0162297E-2,3.3203032E0,-6.976547E-1,7.165065E-2,-4.9066603E-2,1.932384E-2,-4.037133E-2,9.2576675E-2,9.646453E-3,1.2742703E-1,-9.43095E-1,1.6878419E-2,-4.4554632E-2,1.4410378E-1,4.12316E-2,-5.568264E-2,-1.0013219E0,-3.2818526E-2,2.0278934E-2,-3.8493253E-2,1.6113069E-2,-4.684886E-2,1.922869E-2],"split_indices":[9,12,7,8,1,17,9,0,0,10,7,9,1,7,0,14,0,2,0,0,0,0,0,2,0,9,11,0,0,0,1,17,8,10,0,7,7,0,0,8,18,0,0,8,1,0,0,0,11,0,0,0,8,3,2,2,0,19,18,0,0,0,0,0,0,0,8,0,0,0,0,0,17,0,0,0,0,0,0],"split_type":[0,0,0,0,0,0,0,0,0,0,0,0,0,0,0,0,0,0,0,0,0,0,0,0,0,0,0,0,0,0,0,0,0,0,0,0,0,0,0,0,0,0,0,0,0,0,0,0,0,0,0,0,0,0,0,0,0,0,0,0,0,0,0,0,0,0,0,0,0,0,0,0,0,0,0,0,0,0,0],"sum_hessian":[3.065234E2,1.8774568E2,1.18777725E2,1.7941145E2,8.334232E0,3.807204E1,8.070568E1,1.3310484E1,1.6610097E2,4.4216447E0,3.9125872E0,2.429643E1,1.3775611E1,7.350579E1,7.199895E0,1.1090689E1,2.2197955E0,1.6454343E2,1.5575373E0,1.5834751E0,2.8381698E0,2.7640216E0,1.1485656E0,2.3202677E1,1.0937533E0,1.0112661E1,3.662949E0,7.11817E1,2.3240855E0,6.383522E0,4.7071667E0,1.62295E2,2.248429E0,2.2071657E1,1.1310198E0,5.8657856E0,4.246876E0,2.5680416E0,1.0949075E0,2.0011713E1,5.1169987E1,1.696701E0,3.0104659E0,1.5364108E2,8.653914E0,1.1055232E0,1.142906E0,1.8542307E1,3.5293517E0,4.58102E0,1.2847657E0,1.5764565E0,2.6704195E0,1.5358254E1,4.653459E0,4.908466E1,2.085329E0,1.5127354E2,2.367541E0,1.6843154E0,6.969599E0,1.056497E0,2.4728546E0,1.3264169E0,1.3440025E0,1.2740729E1,2.6175256E0,1.0648527E0,3.5886064E0,4.7731976E1,1.3526828E0,1.4622069E2,5.052846E0,1.3325043E0,1.0350367E0,1.5734342E0,1.0440913E0,3.9931848E0,1.0596611E0],"tree_param":{"num_deleted":"0","num_feature":"21","num_nodes":"79","size_leaf_vector":"1"}},{"base_weights":[6.380591E-3,1.638834E0,-2.5681484E-1,1.7323759E-1,-3.0488092E-2,-3.8918284E-1,1.5306226E0,-4.5170164E-1,1.5257238E-1,1.729853E-1,-3.0151159E-2,-5.002877E-1,9.9983495E-1,7.132805E-2,-5.131086E-1,-3.2856114E-2,1.5810564E-1,-5.255804E-1,-6.451879E-2,-3.249814E-1,-5.318395E-2,-3.6227625E-2,2.2537996E-1,-4.5175634E-2,1.8317392E-2,6.7599855E-2,-3.0180618E-2],"categories":[],"categories_nodes":[],"categories_segments":[],"categories_sizes":[],"default_left":[0,0,0,0,0,0,0,0,0,0,0,0,0,0,0,0,0,0,0,0,0,0,0,0,0,0,0],"id":11,"left_children":[1,3,5,-1,-1,7,9,11,-1,-1,-1,13,15,-1,17,-1,-1,19,21,23,-1,-1,25,-1,-1,-1,-1],"loss_changes":[8.6185356E1,5.5918427E0,4.1471264E1,0E0,0E0,2.004133E1,4.9435616E0,1.1594341E1,0E0,0E0,0E0,2.744667E0,4.7107263E0,0E0,8.1572723E-1,0E0,0E0,1.2500763E-2,5.346435E-1,5.361216E-1,0E0,0E0,9.821482E-1,0E0,0E0,0E0,0E0],"parents":[2147483647,0,0,1,1,2,2,5,5,6,6,7,7,11,11,12,12,14,14,17,17,18,18,19,19,22,22],"right_children":[2,4,6,-1,-1,8,10,12,-1,-1,-1,14,16,-1,18,-1,-1,20,22,24,-1,-1,26,-1,-1,-1,-1],"split_conditions":[-1.7069056E0,2.7299166E0,3.1617873E0,1.7323759E-1,-3.0488092E-2,1.9204328E0,2.1511146E-1,3.1221755E0,1.5257238E-1,1.729853E-1,-3.0151159E-2,-1.7983292E0,-4.3744922E-1,7.132805E-2,1.7459003E0,-3.2856114E-2,1.5810564E-1,-1.346613E0,-1.3890758E-1,-2.8214878E-1,-5.318395E-2,-3.6227625E-2,-1.17473595E-1,-4.5175634E-2,1.8317392E-2,6.7599855E-2,-3.0180618E-2],"split_indices":[17,13,9,0,0,7,3,6,0,0,0,16,0,0,7,0,0,11,2,10,0,0,2,0,0,0,0],"split_type":[0,0,0,0,0,0,0,0,0,0,0,0,0,0,0,0,0,0,0,0,0,0,0,0,0,0,0],"sum_hessian":[1.986128E2,2.6850088E1,1.7176271E2,2.5720987E1,1.1291004E0,1.6064822E2,1.1114476E1,1.5630908E2,4.3391438E0,1.0074751E1,1.0397254E0,1.5188065E2,4.4284334E0,1.0166355E0,1.5086401E2,1.4801711E0,2.948262E0,1.4661615E2,4.2478704E0,6.037598E0,1.4057855E2,1.9723688E0,2.2755015E0,4.920913E0,1.1166849E0,1.0746528E0,1.2008487E0],"tree_param":{"num_deleted":"0","num_feature":"21","num_nodes":"27","size_leaf_vector":"1"}},{"base_weights":[2.7452412E-3,4.0019038E-1,-6.286597E-1,4.40874E-1,-7.7890015E-1,-7.3781854E-1,1.1585605E-1,4.6151605E-1,-1.10778965E-1,4.1960436E-3,-9.470015E-2,-9.4291127E-1,-3.5994303E-1,-9.4322294E-2,5.204666E-1,5.276358E-1,1.9586849E-1,-5.630854E-1,-1.01861835E-1,-1.0096431E-1,-6.399577E-3,5.717463E-2,-3.7590475E-3,-5.3493526E-2,5.409396E-1,-3.0534226E-1,5.142011E-1,-1.02898136E-1,1.5460734E-2,3.8524315E-1,-7.204321E-1,5.4984206E-1,-4.8591487E-2,-7.2307214E-2,-1.049575E-1,5.4230237E-1,-1.0841276E-2,3.622948E-1,-7.008741E-2,4.5965672E-1,-5.3788364E-2,-8.692479E-1,-6.299821E-2,5.591018E-1,-1.16007015E-1,-3.116293E-1,5.030433E-2,5.7301857E-2,-4.4995057E-3,-1.8183185E-3,4.805537E-2,5.6381892E-2,1.2087545E-1,-1.01338245E-1,-1.6867395E-2,3.607611E-2,-4.3441597E-2,5.6361663E-1,-1.5026999E-2,-6.51628E-2,3.6726315E-2,2.5363224E-2,-6.2830484E-1,5.1767405E-2,-7.514476E-2,5.728128E-2,1.489373E-2,-3.4864284E-2,4.6397895E-2,-6.890565E-3,-9.758525E-2],"categories":[],"categories_nodes":[],"categories_segments":[],"categories_sizes":[],"default_left":[0,0,0,0,0,0,0,0,0,0,0,0,0,0,0,0,0,0,0,0,0,0,0,0,0,0,0,0,0,0,0,0,0,0,0,0,0,0,0,0,0,0,0,0,0,0,0,0,0,0,0,0,0,0,0,0,0,0,0,0,0,0,0,0,0,0,0,0,0,0,0],"id":12,"left_children":[1,3,5,7,9,11,13,15,-1,-1,-1,17,19,-1,21,23,25,27,-1,-1,29,-1,-1,-1,31,33,35,-1,37,39,41,43,-1,45,-1,47,-1,49,-1,51,-1,53,55,57,59,61,-1,-1,-1,-1,-1,-1,63,-1,-1,-1,-1,65,-1,-1,-1,67,69,-1,-1,-1,-1,-1,-1,-1,-1],"loss_changes":[1.070995E2,1.2907116E1,1.3484245E1,8.625038E0,1.295013E0,1.0814392E1,9.8949375E0,4.30851E0,0E0,0E0,0E0,2.0912247E0,1.1995182E1,0E0,4.9434662E-1,3.1241112E0,8.397759E0,4.7699566E0,0E0,0E0,1.0021334E1,0E0,0E0,0E0,2.082203E0,3.5123243E0,6.179724E-1,0E0,2.4533896E0,1.8376956E0,1.1868162E0,1.2813988E0,0E0,2.4741426E0,0E0,5.804329E-1,0E0,3.0678415E-1,0E0,7.0695686E-1,0E0,8.66086E-1,6.9507736E-1,7.085037E-1,1.1542139E0,1.3502603E0,0E0,0E0,0E0,0E0,0E0,0E0,2.6174943E0,0E0,0E0,0E0,0E0,6.5356445E-1,0E0,0E0,0E0,1.313123E0,1.1935177E0,0E0,0E0,0E0,0E0,0E0,0E0,0E0,0E0],"parents":[2147483647,0,0,1,1,2,2,3,3,4,4,5,5,6,6,7,7,11,11,12,12,14,14,15,15,16,16,17,17,20,20,24,24,25,25,26,26,28,28,29,29,30,30,31,31,33,33,35,35,37,37,39,39,41,41,42,42,43,43,44,44,45,45,52,52,57,57,61,61,62,62],"right_children":[2,4,6,8,10,12,14,16,-1,-1,-1,18,20,-1,22,24,26,28,-1,-1,30,-1,-1,-1,32,34,36,-1,38,40,42,44,-1,46,-1,48,-1,50,-1,52,-1,54,56,58,60,62,-1,-1,-1,-1,-1,-1,64,-1,-1,-1,-1,66,-1,-1,-1,68,70,-1,-1,-1,-1,-1,-1,-1,-1],"split_conditions":[7.568824E-1,3.1221755E0,-4.6127744E-2,2.7811985E0,9.0407896E-1,2.1511146E-1,-2.7142236E0,9.229974E-1,-1.10778965E-1,4.1960436E-3,-9.470015E-2,-1.5477245E-1,-1.8351935E0,-9.4322294E-2,1.1000128E0,-2.286806E0,-4.6127744E-2,-1.325256E-1,-1.01861835E-1,-1.0096431E-1,2.1741368E-1,5.717463E-2,-3.7590475E-3,-5.3493526E-2,1.3920925E0,-4.4210312E-1,2.6899374E0,-1.02898136E-1,6.440555E-1,3.1221755E0,1.3386576E0,8.541859E0,-4.8591487E-2,1.2588432E0,-1.049575E-1,1.773764E0,-1.0841276E-2,-1.1668795E0,-7.008741E-2,1.4763225E0,-5.3788364E-2,1.9970179E-2,-5.801731E-1,2.591718E0,9.292048E0,3.3455604E-1,5.030433E-2,5.7301857E-2,-4.4995057E-3,-1.8183185E-3,4.805537E-2,5.6381892E-2,-6.731262E-1,-1.01338245E-1,-1.6867395E-2,3.607611E-2,-4.3441597E-2,1.5306923E0,-1.5026999E-2,-6.51628E-2,3.6726315E-2,1.2904513E0,-2.9992047E-1,5.1767405E-2,-7.514476E-2,5.728128E-2,1.489373E-2,-3.4864284E-2,4.6397895E-2,-6.890565E-3,-9.758525E-2],"split_indices":[7,6,1,9,19,3,16,17,0,0,0,9,17,0,18,16,1,0,0,0,17,0,0,0,0,19,14,0,16,6,7,2,0,9,0,12,0,11,0,9,0,10,19,3,2,9,0,0,0,0,0,0,10,0,0,0,0,9,0,0,0,0,10,0,0,0,0,0,0,0,0],"split_type":[0,0,0,0,0,0,0,0,0,0,0,0,0,0,0,0,0,0,0,0,0,0,0,0,0,0,0,0,0,0,0,0,0,0,0,0,0,0,0,0,0,0,0,0,0,0,0,0,0,0,0,0,0,0,0,0,0,0,0,0,0,0,0,0,0,0,0,0,0,0,0],"sum_hessian":[4.2477576E2,2.609095E2,1.6386629E2,2.5281245E2,8.097014E0,1.4292065E2,2.094563E1,2.5017981E2,2.6326416E0,1.5038593E0,6.5931554E0,9.167082E1,5.1249836E1,5.4220586E0,1.5523571E1,1.9953041E2,5.064941E1,1.6637482E1,7.503334E1,1.7406487E1,3.384335E1,1.4194695E1,1.3288758E0,1.9824622E0,1.9754794E2,1.9689438E1,3.095997E1,8.784704E0,7.852778E0,2.2153017E1,1.1690333E1,1.9631055E2,1.2373961E0,1.5829912E1,3.859525E0,2.9746378E1,1.2135929E0,5.6239967E0,2.2287812E0,2.096508E1,1.1879368E0,9.269843E0,2.4204907E0,1.9377608E2,2.534465E0,1.1503357E1,4.3265557E0,2.8291044E1,1.4553349E0,1.5342025E0,4.089794E0,1.55269E1,5.438181E0,7.3177924E0,1.9520502E0,1.143984E0,1.2765067E0,1.9275475E2,1.0213307E0,1.0368857E0,1.4975795E0,6.018565E0,5.4847913E0,4.0173454E0,1.4208356E0,1.8819978E2,4.554963E0,3.359263E0,2.6593022E0,2.560988E0,2.9238033E0],"tree_param":{"num_deleted":"0","num_feature":"21","num_nodes":"71","size_leaf_vector":"1"}},{"base_weights":[-2.8955393E-2,7.0221E-1,-3.9444077E-1,8.064011E-1,-5.147746E-2,-4.4474402E-1,7.233632E-1,8.9192204E-2,9.729006E-1,-5.120179E-1,-5.798052E-2,1.0954063E0,-3.7364464E-2,-3.442405E-1,6.9621295E-1,1.0631884E0,-4.747366E-2,-5.3961146E-1,-1.24898605E-1,-4.015849E-1,8.163532E-1,1.4152633E-2,1.2572667E-1,1.7783968E-2,-4.1601574E-1,9.059776E-1,-2.4686714E-3,1.1262286E0,-5.2599307E-2,-3.1735492E-1,-5.458021E-1,9.020792E-2,-4.975429E-2,-4.776166E-1,4.4656307E-2,-3.0455759E-2,1.0321591E0,-4.9980246E-2,1.2521445E-2,1.3015258E-1,-2.6061132E-3,1.1464412E0,7.11997E-3,-4.098637E-2,5.062902E-2,-4.529486E-2,2.1297852E-2,-5.5164512E-2,-3.0619812E-1,-5.2603718E-2,3.1082968E-3,-3.722346E-2,6.1989125E-2,5.2353495E-1,1.4321572E-1,1.1579775E-1,3.6111444E-2,-4.592647E-2,1.8865133E-2,6.692524E-2,1.1219504E-1,4.7254857E-2,-3.4273967E-2],"categories":[],"categories_nodes":[],"categories_segments":[],"categories_sizes":[],"default_left":[0,0,0,0,0,0,0,0,0,0,0,0,0,0,0,0,0,0,0,0,0,0,0,0,0,0,0,0,0,0,0,0,0,0,0,0,0,0,0,0,0,0,0,0,0,0,0,0,0,0,0,0,0,0,0,0,0,0,0,0,0,0,0],"id":13,"left_children":[1,3,5,7,-1,9,11,13,15,17,19,21,-1,23,25,27,-1,29,31,33,35,-1,-1,-1,37,39,-1,41,43,45,47,-1,-1,49,51,-1,53,-1,-1,-1,-1,55,-1,-1,-1,-1,-1,-1,57,-1,-1,-1,-1,59,-1,-1,-1,-1,-1,61,-1,-1,-1],"loss_changes":[8.041722E1,1.3133804E1,1.1600508E1,1.09931755E1,0E0,4.980736E0,4.090157E0,5.128795E0,1.0334007E1,1.683464E0,9.238452E0,9.011431E-1,0E0,5.05314E-1,1.2430089E0,5.0601196E0,0E0,3.6888123E-2,5.120409E0,7.6648784E-1,2.4182487E0,0E0,0E0,0E0,5.3505564E-1,2.348835E0,0E0,1.3543701E0,1.1574265E0,5.658376E-1,3.712845E-2,0E0,0E0,4.8067617E-1,1.2167931E0,0E0,7.803736E-1,0E0,0E0,0E0,0E0,1.7985535E-1,0E0,0E0,0E0,0E0,0E0,0E0,5.22252E-1,0E0,0E0,0E0,0E0,1.260292E0,0E0,0E0,0E0,0E0,0E0,7.9929745E-1,0E0,0E0,0E0],"parents":[2147483647,0,0,1,1,2,2,3,3,5,5,6,6,7,7,8,8,9,9,10,10,11,11,13,13,14,14,15,15,17,17,18,18,19,19,20,20,24,24,25,25,27,27,28,28,29,29,30,30,33,33,34,34,36,36,41,41,48,48,53,53,59,59],"right_children":[2,4,6,8,-1,10,12,14,16,18,20,22,-1,24,26,28,-1,30,32,34,36,-1,-1,-1,38,40,-1,42,44,46,48,-1,-1,50,52,-1,54,-1,-1,-1,-1,56,-1,-1,-1,-1,-1,-1,58,-1,-1,-1,-1,60,-1,-1,-1,-1,-1,62,-1,-1,-1],"split_conditions":[-7.1660304E-1,3.2161572E0,1.595375E0,6.987049E-1,-5.147746E-2,8.337049E-3,-3.0488127E-1,1.4353919E0,1.9204328E0,1.2437173E0,9.942703E-1,-2.3213542E-1,-3.7364464E-2,1.169297E-1,8.9414185E-1,1.2336571E0,-4.747366E-2,-1.3949528E0,-3.0488127E-1,9.582009E-1,-3.0884393E-2,1.4152633E-2,1.2572667E-1,1.7783968E-2,7.543232E-2,2.2155008E-1,-2.4686714E-3,-4.6127744E-2,9.8552763E-1,1.1693191E-1,3.3548207E0,9.020792E-2,-4.975429E-2,2.5637193E0,5.5513583E-2,-3.0455759E-2,1.1696572E0,-4.9980246E-2,1.2521445E-2,1.3015258E-1,-2.6061132E-3,2.6833823E-1,7.11997E-3,-4.098637E-2,5.062902E-2,-4.529486E-2,2.1297852E-2,-5.5164512E-2,-1.3220417E0,-5.2603718E-2,3.1082968E-3,-3.722346E-2,6.1989125E-2,8.601592E-1,1.4321572E-1,1.1579775E-1,3.6111444E-2,-4.592647E-2,1.8865133E-2,-5.636348E-1,1.1219504E-1,4.7254857E-2,-3.4273967E-2],"split_indices":[8,9,0,7,0,9,1,12,7,17,14,7,0,7,3,3,0,13,1,15,0,0,0,0,2,13,0,1,0,11,19,0,0,9,10,0,11,0,0,0,0,2,0,0,0,0,0,0,17,0,0,0,0,12,0,0,0,0,0,1,0,0,0],"split_type":[0,0,0,0,0,0,0,0,0,0,0,0,0,0,0,0,0,0,0,0,0,0,0,0,0,0,0,0,0,0,0,0,0,0,0,0,0,0,0,0,0,0,0,0,0,0,0,0,0,0,0,0,0,0,0,0,0,0,0,0,0,0,0],"sum_hessian":[2.988921E2,9.930597E1,1.9958614E2,9.178523E1,7.520735E0,1.9156737E2,8.018761E0,1.75826E1,7.420263E1,1.6290732E2,2.8660051E1,5.9890676E0,2.0296931E0,1.0510593E1,7.072006E0,7.009636E1,4.1062737E0,1.5170032E2,1.1206996E1,2.096264E1,7.697411E0,1.140749E0,4.8483186E0,1.0917406E0,9.418853E0,5.279163E0,1.7928431E0,6.633896E1,3.757401E0,5.5271935E0,1.4617313E2,2.6055522E0,8.601443E0,1.7850855E1,3.1117854E0,1.1763116E0,6.5210996E0,8.222489E0,1.1963629E0,3.4279466E0,1.8512163E0,6.500689E1,1.3320712E0,2.4548254E0,1.3025757E0,4.517973E0,1.0092207E0,1.414221E2,4.751028E0,1.6268276E1,1.5825783E0,2.0088258E0,1.1029595E0,3.8871598E0,2.6339397E0,6.3598133E1,1.4087542E0,3.6835458E0,1.0674824E0,2.8354557E0,1.0517042E0,1.3476253E0,1.4878303E0],"tree_param":{"num_deleted":"0","num_feature":"21","num_nodes":"63","size_leaf_vector":"1"}},{"base_weights":[2.2143738E-3,-2.3954046E-1,1.4304457E0,-3.8637692E-1,1.3446046E0,1.4687591E0,2.070132E-2,1.2598096E-1,-4.5002407E-1,1.4427003E-1,1.2852082E-2,1.507304E-1,4.5609325E-2,-5.113201E-1,1.134194E0,6.874194E-2,-5.3048622E-2,1.3361941E-1,1.32452985E-2],"categories":[],"categories_nodes":[],"categories_segments":[],"categories_sizes":[],"default_left":[0,0,0,0,0,0,0,0,0,0,0,0,0,0,0,0,0,0,0],"id":14,"left_children":[1,3,5,7,9,11,-1,-1,13,-1,-1,-1,-1,15,17,-1,-1,-1,-1],"loss_changes":[6.726775E1,3.927814E1,1.0179176E0,1.662551E1,1.5273533E0,3.7353897E-1,0E0,0E0,1.4980652E1,0E0,0E0,0E0,0E0,3.6607742E0,1.0037222E0,0E0,0E0,0E0,0E0],"parents":[2147483647,0,0,1,1,2,2,3,3,4,4,5,5,8,8,13,13,14,14],"right_children":[2,4,6,8,10,12,-1,-1,14,-1,-1,-1,-1,16,18,-1,-1,-1,-1],"split_conditions":[3.1221755E0,3.2161572E0,-4.9023157E-1,-1.9204485E0,-1.2440374E-1,-3.328984E-1,2.070132E-2,1.2598096E-1,1.9204328E0,1.4427003E-1,1.2852082E-2,1.507304E-1,4.5609325E-2,-2.0917695E0,-4.6391895E-1,6.874194E-2,-5.3048622E-2,1.3361941E-1,1.32452985E-2],"split_indices":[6,9,18,16,3,16,0,0,7,0,0,0,0,17,3,0,0,0,0],"split_type":[0,0,0,0,0,0,0,0,0,0,0,0,0,0,0,0,0,0,0],"sum_hessian":[1.928275E2,1.656247E2,2.7202793E1,1.5226697E2,1.3357725E1,2.6182337E1,1.0204566E0,4.968435E0,1.4729854E2,1.2188211E1,1.1695138E0,2.4751764E1,1.4305732E0,1.4246362E2,4.834913E0,1.6932538E0,1.4077037E2,3.7457206E0,1.0891922E0],"tree_param":{"num_deleted":"0","num_feature":"21","num_nodes":"19","size_leaf_vector":"1"}},{"base_weights":[9.505101E-3,3.7050027E-1,-5.5284554E-1,4.244405E-1,-6.894865E-1,-2.1100807E-1,-7.8036445E-1,5.248509E-1,7.634181E-2,-8.536643E-1,3.7347738E-2,-8.499903E-1,1.7993248E-1,-8.973333E-1,-2.85797E-1,-6.272386E-1,5.4382896E-1,-3.8870403E-1,5.6259193E-2,-1.4236646E-2,-9.145186E-2,-9.302337E-2,3.555423E-2,3.367541E-1,-8.9195654E-2,-9.254904E-2,1.2371696E-2,2.6632634E-1,-6.798942E-1,-8.4537175E-4,-9.8483644E-2,2.7885386E-1,5.624988E-1,-2.370988E-1,-9.925818E-2,4.3813354E-1,-5.704676E-1,4.342184E-1,-2.9120062E-2,-8.914614E-1,1.8078884E-1,4.619805E-1,-4.288991E-1,5.676271E-1,-1.4623582E-2,-4.387999E-1,1.9757017E-1,7.450953E-2,5.6200843E-2,-8.017855E-2,-1.6926946E-3,5.3545095E-2,1.9764912E-4,-9.525958E-2,-2.9966524E-2,3.5580114E-2,-8.772154E-3,-1.5404557E-2,5.3632952E-2,3.3651453E-2,-1.0665482E-1,5.730931E-2,-9.595115E-3,-5.2157426E-1,3.4128442E-2,5.042048E-2,-2.7627242E-1,-7.677583E-2,3.0774698E-1,2.7238438E-2,-6.57509E-1,-9.761584E-2,3.860124E-2,-2.0814028E-2,5.0327893E-2,-4.3582555E-2,3.9523613E-2,-9.252965E-2,-2.0517914E-2],"categories":[],"categories_nodes":[],"categories_segments":[],"categories_sizes":[],"default_left":[0,0,0,0,0,0,0,0,0,0,0,0,0,0,0,0,0,0,0,0,0,0,0,0,0,0,0,0,0,0,0,0,0,0,0,0,0,0,0,0,0,0,0,0,0,0,0,0,0,0,0,0,0,0,0,0,0,0,0,0,0,0,0,0,0,0,0,0,0,0,0,0,0,0,0,0,0,0,0],"id":15,"left_children":[1,3,5,7,9,11,13,15,17,19,-1,21,23,25,27,29,31,33,-1,-1,-1,-1,-1,35,-1,-1,-1,37,39,-1,-1,41,43,45,-1,47,49,51,-1,53,55,57,59,61,-1,63,65,67,-1,-1,-1,-1,-1,-1,-1,-1,-1,-1,-1,-1,-1,-1,-1,69,-1,-1,71,-1,73,75,77,-1,-1,-1,-1,-1,-1,-1,-1],"loss_changes":[8.4002625E1,1.4700958E1,1.2418114E1,8.363129E0,2.5148754E0,1.6645313E1,5.341263E0,4.4171295E0,1.2654298E1,3.547964E-1,0E0,2.7718887E0,7.3244095E0,2.3509064E0,4.527546E0,7.629341E-1,7.530861E-1,2.3922734E0,0E0,0E0,0E0,0E0,0E0,3.669407E0,0E0,0E0,0E0,9.7246444E-1,2.334844E0,0E0,0E0,2.0243297E0,7.039604E-1,2.2132401E0,0E0,1.4899478E0,5.205525E-1,3.2046103E-1,0E0,6.730461E-2,1.8096495E-1,6.173527E-1,2.02559E0,6.709709E-1,0E0,1.2678316E0,1.3565073E0,2.1603315E0,0E0,0E0,0E0,0E0,0E0,0E0,0E0,0E0,0E0,0E0,0E0,0E0,0E0,0E0,0E0,1.1857691E0,0E0,0E0,2.2018635E0,0E0,9.5047367E-1,8.6545044E-1,1.3347268E0,0E0,0E0,0E0,0E0,0E0,0E0,0E0,0E0],"parents":[2147483647,0,0,1,1,2,2,3,3,4,4,5,5,6,6,7,7,8,8,9,9,11,11,12,12,13,13,14,14,15,15,16,16,17,17,23,23,27,27,28,28,31,31,32,32,33,33,35,35,36,36,37,37,39,39,40,40,41,41,42,42,43,43,45,45,46,46,47,47,63,63,66,66,68,68,69,69,70,70],"right_children":[2,4,6,8,10,12,14,16,18,20,-1,22,24,26,28,30,32,34,-1,-1,-1,-1,-1,36,-1,-1,-1,38,40,-1,-1,42,44,46,-1,48,50,52,-1,54,56,58,60,62,-1,64,66,68,-1,-1,-1,-1,-1,-1,-1,-1,-1,-1,-1,-1,-1,-1,-1,70,-1,-1,72,-1,74,76,78,-1,-1,-1,-1,-1,-1,-1,-1],"split_conditions":[7.568824E-1,3.1221755E0,-1.5477245E-1,9.229974E-1,-3.0488127E-1,-1.7710496E0,2.1511146E-1,-2.286806E0,2.1262577E-1,-1.3956858E0,3.7347738E-2,2.3507638E0,1.5713677E0,-4.6127744E-2,-5.0308913E-1,2.1511146E-1,-7.1660304E-1,7.789649E-1,5.6259193E-2,-1.4236646E-2,-9.145186E-2,-9.302337E-2,3.555423E-2,3.1221755E0,-8.9195654E-2,-9.254904E-2,1.2371696E-2,-1.6034158E-1,1.3386576E0,-8.4537175E-4,-9.8483644E-2,-6.020025E-1,2.591718E0,-7.047074E-1,-9.925818E-2,-5.456556E-1,7.131365E-1,-4.776375E-1,-2.9120062E-2,1.1795733E0,-3.622634E-1,-5.760286E-2,-5.317162E-2,3.7073379E0,-1.4623582E-2,2.103581E0,-2.3129985E-2,-2.9030612E-1,5.6200843E-2,-8.017855E-2,-1.6926946E-3,5.3545095E-2,1.9764912E-4,-9.525958E-2,-2.9966524E-2,3.5580114E-2,-8.772154E-3,-1.5404557E-2,5.3632952E-2,3.3651453E-2,-1.0665482E-1,5.730931E-2,-9.595115E-3,-4.243224E-1,3.4128442E-2,5.042048E-2,1.3920925E0,-7.677583E-2,-4.6391895E-1,-5.8426774E-1,1.11298E0,-9.761584E-2,3.860124E-2,-2.0814028E-2,5.0327893E-2,-4.3582555E-2,3.9523613E-2,-9.252965E-2,-2.0517914E-2],"split_indices":[7,6,9,17,1,17,3,16,1,7,0,11,7,1,13,3,8,13,0,0,0,0,0,6,0,0,0,2,7,0,0,11,3,11,0,19,4,10,0,17,14,7,2,14,0,0,14,12,0,0,0,0,0,0,0,0,0,0,0,0,0,0,0,10,0,0,0,0,3,10,20,0,0,0,0,0,0,0,0],"split_type":[0,0,0,0,0,0,0,0,0,0,0,0,0,0,0,0,0,0,0,0,0,0,0,0,0,0,0,0,0,0,0,0,0,0,0,0,0,0,0,0,0,0,0,0,0,0,0,0,0,0,0,0,0,0,0,0,0,0,0,0,0,0,0,0,0,0,0,0,0,0,0,0,0,0,0,0,0,0,0],"sum_hessian":[4.117851E2,2.5099963E2,1.6078545E2,2.3941591E2,1.1583733E1,6.502123E1,9.576422E1,1.8542235E2,5.399356E1,1.0204517E1,1.3792152E0,2.4235203E1,4.078603E1,7.678873E1,1.8975489E1,2.4855072E0,1.8293683E2,2.7701077E1,2.6292486E1,1.0674183E0,9.137098E0,2.293683E1,1.2983712E0,3.6178764E1,4.607267E0,7.481907E1,1.96966E0,8.038251E0,1.0937239E1,1.285217E0,1.2002902E0,1.3090033E1,1.698468E2,2.3255375E1,4.4457006E0,3.3007347E1,3.1714163E0,6.3478484E0,1.6904025E0,8.750493E0,2.1867456E0,1.0675159E1,2.4148731E0,1.6882433E2,1.0224751E0,1.5877961E1,7.377414E0,8.794208E0,2.421314E1,1.9204261E0,1.2509902E0,4.94981E0,1.3980384E0,7.378592E0,1.3719006E0,1.1270521E0,1.0596936E0,1.0342078E0,9.640952E0,1.3121126E0,1.1027604E0,1.6758028E2,1.2440499E0,1.465438E1,1.2235814E0,4.4400663E0,2.9373477E0,1.4101443E0,7.3840632E0,3.0679002E0,1.158648E1,1.1977112E0,1.7396365E0,2.0117702E0,5.372293E0,1.2768635E0,1.7910366E0,6.6210666E0,4.9654136E0],"tree_param":{"num_deleted":"0","num_feature":"21","num_nodes":"79","size_leaf_vector":"1"}},{"base_weights":[2.6433514E-3,-4.1510525E-1,5.7807374E-1,-4.9478635E-1,9.429535E-2,-4.4694948E-1,7.015725E-1,-5.066345E-1,-7.051619E-2,4.8071623E-1,-4.958524E-2,-5.0913192E-2,1.1697906E-2,7.715273E-1,-4.9226526E-2,-5.1311547E-1,9.917632E-3,6.095329E-2,-4.1252475E-2,-2.1390028E-1,7.117163E-1,3.9427218E-1,8.9660317E-1,-2.3204643E-1,-5.3169173E-1,-3.9497085E-2,1.9992253E-2,8.7571317E-1,8.649554E-2,6.735138E-1,-2.7995807E-1,9.298069E-1,-3.664249E-2,-4.9595084E-2,5.238452E-1,-5.3797734E-1,-2.878594E-1,3.823166E-1,1.281575E-1,1.2780679E-3,1.304013E-2,8.045225E-1,-3.9496776E-2,-4.81366E-2,3.9621297E-2,1.0047448E0,4.6444327E-1,6.800335E-2,1.3521071E-2,-3.152819E-1,-5.457143E-2,-4.4780284E-2,1.8838024E-2,6.451885E-1,-3.167656E-2,-3.1532098E-2,9.0701663E-1,1.0331326E0,5.0434816E-1,7.072129E-1,-4.02144E-2,1.9966548E-2,-4.4964533E-2,8.1709765E-2,1.0446227E-2,9.993482E-2,-3.2022335E-3,9.20838E-1,1.23495616E-1,-3.2503292E-2,8.520126E-2,1.8703297E-1,1.1184242E0,1.0137576E-1,4.834324E-2,-3.4812145E-2,4.858948E-2,1.9675096E-2,1.2855624E-1],"categories":[],"categories_nodes":[],"categories_segments":[],"categories_sizes":[],"default_left":[0,0,0,0,0,0,0,0,0,0,0,0,0,0,0,0,0,0,0,0,0,0,0,0,0,0,0,0,0,0,0,0,0,0,0,0,0,0,0,0,0,0,0,0,0,0,0,0,0,0,0,0,0,0,0,0,0,0,0,0,0,0,0,0,0,0,0,0,0,0,0,0,0,0,0,0,0,0,0],"id":16,"left_children":[1,3,5,7,9,11,13,15,17,19,-1,-1,-1,21,-1,23,-1,-1,-1,25,27,29,31,33,35,-1,-1,37,39,41,43,45,-1,-1,47,49,51,53,-1,-1,-1,55,-1,-1,-1,57,59,-1,-1,61,-1,-1,-1,63,-1,-1,65,67,69,71,-1,-1,-1,-1,-1,-1,-1,73,-1,-1,-1,75,77,-1,-1,-1,-1,-1,-1],"loss_changes":[6.950133E1,6.8461227E0,1.5707947E1,6.9325256E-1,5.597178E0,5.395222E-1,9.476364E0,6.041641E-1,1.4379516E0,2.5122786E0,0E0,0E0,0E0,4.5199165E0,0E0,6.0544586E-1,0E0,0E0,0E0,4.116252E-1,1.0796857E0,5.3662972E0,3.560688E0,2.3400187E0,4.4620514E-2,0E0,0E0,1.2757506E0,9.503232E-3,3.0810585E0,1.3837979E0,2.1522293E0,0E0,0E0,1.0137653E-1,4.4589996E-2,4.9734804E-1,1.197601E0,0E0,0E0,0E0,2.3420992E0,0E0,0E0,0E0,3.855362E-1,2.866885E0,0E0,0E0,5.4573977E-1,0E0,0E0,0E0,3.1036615E-1,0E0,0E0,1.4773121E0,2.0996857E-1,1.82825E0,1.9194751E0,0E0,0E0,0E0,0E0,0E0,0E0,0E0,1.2219505E0,0E0,0E0,0E0,1.063904E0,5.723028E-1,0E0,0E0,0E0,0E0,0E0,0E0],"parents":[2147483647,0,0,1,1,2,2,3,3,4,4,5,5,6,6,7,7,8,8,9,9,13,13,15,15,19,19,20,20,21,21,22,22,23,23,24,24,27,27,28,28,29,29,30,30,31,31,34,34,35,35,36,36,37,37,41,41,45,45,46,46,49,49,53,53,56,56,57,57,58,58,59,59,67,67,71,71,72,72],"right_children":[2,4,6,8,10,12,14,16,18,20,-1,-1,-1,22,-1,24,-1,-1,-1,26,28,30,32,34,36,-1,-1,38,40,42,44,46,-1,-1,48,50,52,54,-1,-1,-1,56,-1,-1,-1,58,60,-1,-1,62,-1,-1,-1,64,-1,-1,66,68,70,72,-1,-1,-1,-1,-1,-1,-1,74,-1,-1,-1,76,78,-1,-1,-1,-1,-1,-1],"split_conditions":[-1.00402616E-1,1.0871688E0,-2.3213542E-1,1.2437173E0,2.1262577E-1,1.4015547E0,3.2161572E0,9.013407E0,4.713793E-1,-3.4849045E-1,-4.958524E-2,-5.0913192E-2,1.1697906E-2,2.1663815E-1,-4.9226526E-2,-7.1660304E-1,9.917632E-3,6.095329E-2,-4.1252475E-2,4.158567E-1,1.4988902E0,-8.2984906E-1,1.9204328E0,-5.249738E-1,3.3548207E0,-3.9497085E-2,1.9992253E-2,1.1325324E0,-5.636348E-1,5.546267E-1,6.551369E-1,-5.636348E-1,-3.664249E-2,-4.9595084E-2,-3.712546E-2,-1.3949528E0,-1.0013219E0,-5.636348E-1,1.281575E-1,1.2780679E-3,1.304013E-2,7.568824E-1,-3.9496776E-2,-4.81366E-2,3.9621297E-2,1.9002985E0,1.3720052E0,6.800335E-2,1.3521071E-2,-1.3199242E0,-5.457143E-2,-4.4780284E-2,1.8838024E-2,3.3986083E-1,-3.167656E-2,-3.1532098E-2,1.8622553E0,-2.3129985E-2,6.987049E-1,7.6617473E-1,-4.02144E-2,1.9966548E-2,-4.4964533E-2,8.1709765E-2,1.0446227E-2,9.993482E-2,-3.2022335E-3,-5.1116634E-2,1.23495616E-1,-3.2503292E-2,8.520126E-2,8.2632196E-1,5.746604E-4,1.0137576E-1,4.834324E-2,-3.4812145E-2,4.858948E-2,1.9675096E-2,1.2855624E-1],"split_indices":[9,0,7,17,1,12,9,2,1,7,0,0,0,16,0,8,0,0,0,8,16,8,7,11,19,0,0,16,1,3,14,1,0,0,11,13,17,1,0,0,0,7,0,0,0,0,17,0,0,18,0,0,0,10,0,0,7,14,7,16,0,0,0,0,0,0,0,10,0,0,0,12,7,0,0,0,0,0,0],"split_type":[0,0,0,0,0,0,0,0,0,0,0,0,0,0,0,0,0,0,0,0,0,0,0,0,0,0,0,0,0,0,0,0,0,0,0,0,0,0,0,0,0,0,0,0,0,0,0,0,0,0,0,0,0,0,0,0,0,0,0,0,0,0,0,0,0,0,0,0,0,0,0,0,0,0,0,0,0,0,0],"sum_hessian":[2.8712656E2,1.6651747E2,1.2060907E2,1.4401859E2,2.2498884E1,1.2687281E1,1.0792179E2,1.3991716E2,4.101431E0,1.3708302E1,8.790583E0,1.1514757E1,1.172523E0,1.0228215E2,5.63964E0,1.3858755E2,1.3296062E0,1.1107008E0,2.9907303E0,3.4395652E0,1.0268737E1,2.6501217E1,7.578093E1,9.428036E0,1.2915952E2,2.4243379E0,1.0152273E0,7.817533E0,2.4512038E0,1.8740602E1,7.760613E0,7.409683E1,1.6841011E0,7.243129E0,2.184907E0,1.24737656E2,4.4218626E0,4.4047585E0,3.4127746E0,1.3969353E0,1.0542685E0,1.6913807E1,1.8267956E0,6.201501E0,1.559112E0,6.2821568E1,1.1275265E1,1.023693E0,1.161214E0,5.5899777E0,1.19147675E2,3.354857E0,1.0670056E0,3.2571013E0,1.1476572E0,1.2441229E0,1.5669684E1,5.8441517E1,4.3800507E0,8.951469E0,2.3237946E0,1.056176E0,4.533802E0,2.0835745E0,1.1735269E0,1.420841E1,1.4612744E0,4.112318E1,1.7318336E1,1.3129649E0,3.0670855E0,4.5944057E0,4.3570642E0,3.28311E1,8.29208E0,1.5872988E0,3.007107E0,1.0030396E0,3.3540244E0],"tree_param":{"num_deleted":"0","num_feature":"21","num_nodes":"79","size_leaf_vector":"1"}},{"base_weights":[2.9631343E-2,1.182892E0,-2.1115251E-1,1.24243855E-1,-2.9569894E-2,-3.3567277E-1,1.1514432E0,-4.3619603E-1,1.1636659E0,1.2404789E-1,1.2358022E-2,-4.970828E-1,9.530867E-1,1.2690505E-1,1.594507E-2,5.9435762E-2,-5.117157E-1,1.2770052E-1,3.333212E-3,-5.2633118E-2,-2.5359854E-1,-4.646386E-2,4.8684828E-2],"categories":[],"categories_nodes":[],"categories_segments":[],"categories_sizes":[],"default_left":[0,0,0,0,0,0,0,0,0,0,0,0,0,0,0,0,0,0,0,0,0,0,0],"id":17,"left_children":[1,3,5,-1,-1,7,9,11,13,-1,-1,15,17,-1,-1,-1,19,-1,-1,-1,21,-1,-1],"loss_changes":[5.2595707E1,3.2474403E0,2.699025E1,0E0,0E0,2.2277588E1,1.0688744E0,1.198575E1,7.8696537E-1,0E0,0E0,2.396923E0,1.7619052E0,0E0,0E0,0E0,3.5634232E-1,0E0,0E0,0E0,1.6150587E0,0E0,0E0],"parents":[2147483647,0,0,1,1,2,2,5,5,6,6,7,7,8,8,11,11,12,12,16,16,20,20],"right_children":[2,4,6,-1,-1,8,10,12,14,-1,-1,16,18,-1,-1,-1,20,-1,-1,-1,22,-1,-1],"split_conditions":[-1.6427616E0,2.7299166E0,3.2161572E0,1.24243855E-1,-2.9569894E-2,1.8622553E0,-1.2440374E-1,3.1221755E0,-4.6391895E-1,1.2404789E-1,1.2358022E-2,-2.286806E0,1.246686E0,1.2690505E-1,1.594507E-2,5.9435762E-2,1.5369035E0,1.2770052E-1,3.333212E-3,-5.2633118E-2,1.3968351E0,-4.646386E-2,4.8684828E-2],"split_indices":[17,13,9,0,0,7,3,6,3,0,0,16,11,0,0,0,12,0,0,0,7,0,0],"split_type":[0,0,0,0,0,0,0,0,0,0,0,0,0,0,0,0,0,0,0,0,0,0,0],"sum_hessian":[1.8750731E2,3.1711058E1,1.5579625E2,3.0636944E1,1.0741141E0,1.4344156E2,1.2354697E1,1.3509329E2,8.348264E0,1.1179458E1,1.1752402E0,1.300365E2,5.0567846E0,7.3167086E0,1.0315553E0,1.1962029E0,1.288403E2,3.4524748E0,1.6043099E0,1.2095245E2,7.887848E0,6.4281917E0,1.4596561E0],"tree_param":{"num_deleted":"0","num_feature":"21","num_nodes":"23","size_leaf_vector":"1"}},{"base_weights":[2.840298E-3,3.4236166E-1,-5.3570086E-1,3.886453E-1,-6.5227544E-1,-6.40103E-1,1.5919057E-1,4.9126488E-1,7.996183E-2,4.099371E-3,-7.808015E-1,-8.167273E-1,-3.2979253E-1,-7.845826E-2,5.011076E-1,-5.891009E-1,5.1062E-1,-3.4599924E-1,4.958662E-1,-2.6288738E-2,-8.5507035E-2,-8.42918E-2,-2.4062464E-1,-8.272714E-2,-6.315359E-2,-8.189231E-3,5.5343013E-2,1.5080435E-4,-9.274579E-2,5.2526724E-1,-2.932482E-2,-6.710731E-1,-7.5199194E-2,5.252168E-1,-1.4082645E-2,-6.2681E-2,3.5835575E-2,2.6631486E-1,-6.5530896E-1,5.361164E-1,-1.2013729E-1,3.9498247E-2,-3.673603E-1,-7.8357625E-1,3.1548694E-2,6.453095E-2,-7.9038695E-2,5.56269E-2,-1.2488753E-2,3.5515594E-1,-3.921206E-2,-7.924705E-1,9.241592E-3,5.414895E-1,-9.9293655E-3,3.3927646E-2,-5.727042E-2,1.5010078E-4,-6.504634E-2,5.088528E-4,-8.764451E-1,2.2220519E-1,-5.7403445E-2,-2.171393E-2,4.199964E-1,-3.221101E-2,-8.774375E-2,5.6252444E-1,3.934582E-1,-1.05346255E-1,-2.3924355E-1,5.2625056E-2,-9.7510085E-2,5.370335E-2,9.131196E-2,5.6929052E-2,1.2644479E-2,5.540793E-2,-5.240239E-2,-4.5129135E-2,6.09334E-3,2.0219548E-2,-7.963208E-2,4.601778E-2,-3.5216335E-2],"categories":[],"categories_nodes":[],"categories_segments":[],"categories_sizes":[],"default_left":[0,0,0,0,0,0,0,0,0,0,0,0,0,0,0,0,0,0,0,0,0,0,0,0,0,0,0,0,0,0,0,0,0,0,0,0,0,0,0,0,0,0,0,0,0,0,0,0,0,0,0,0,0,0,0,0,0,0,0,0,0,0,0,0,0,0,0,0,0,0,0,0,0,0,0,0,0,0,0,0,0,0,0,0,0],"id":18,"left_children":[1,3,5,7,9,11,13,15,17,-1,19,21,23,-1,25,27,29,31,33,-1,-1,-1,35,-1,37,-1,-1,-1,-1,39,41,43,45,47,-1,-1,-1,49,51,53,55,-1,57,59,-1,61,-1,-1,-1,63,-1,65,-1,67,-1,-1,-1,-1,-1,-1,69,71,-1,-1,73,-1,-1,75,77,-1,79,-1,81,-1,83,-1,-1,-1,-1,-1,-1,-1,-1,-1,-1],"loss_changes":[7.279404E1,1.1494017E1,1.1270103E1,7.371254E0,1.0326557E0,7.0768127E0,7.140144E0,3.968071E0,1.072358E1,0E0,1.4154148E-1,1.0757561E0,6.619231E0,0E0,5.3211355E-1,7.1101415E-1,1.3822441E0,2.5917063E0,6.44824E-1,0E0,0E0,0E0,1.4007252E0,0E0,6.774073E0,0E0,0E0,0E0,0E0,1.2429771E0,9.356418E-1,1.7471542E0,1.7998682E0,6.632395E-1,0E0,0E0,0E0,1.4522332E0,1.3430943E0,6.1953735E-1,9.427038E-1,0E0,3.7542722E-1,9.139724E-1,0E0,1.6946732E0,0E0,0E0,0E0,8.445506E-1,0E0,1.3967705E-1,0E0,2.9083252E-1,0E0,0E0,0E0,0E0,0E0,0E0,1.0017338E0,1.3347821E0,0E0,0E0,6.655648E-1,0E0,0E0,3.460846E-1,3.796469E0,0E0,2.6367274E-1,0E0,1.68561E0,0E0,1.1570733E0,0E0,0E0,0E0,0E0,0E0,0E0,0E0,0E0,0E0,0E0],"parents":[2147483647,0,0,1,1,2,2,3,3,4,4,5,5,6,6,7,7,8,8,10,10,11,11,12,12,14,14,15,15,16,16,17,17,18,18,22,22,24,24,29,29,30,30,31,31,32,32,33,33,37,37,38,38,39,39,40,40,42,42,43,43,45,45,49,49,51,51,53,53,60,60,61,61,64,64,67,67,68,68,70,70,72,72,74,74],"right_children":[2,4,6,8,10,12,14,16,18,-1,20,22,24,-1,26,28,30,32,34,-1,-1,-1,36,-1,38,-1,-1,-1,-1,40,42,44,46,48,-1,-1,-1,50,52,54,56,-1,58,60,-1,62,-1,-1,-1,64,-1,66,-1,68,-1,-1,-1,-1,-1,-1,70,72,-1,-1,74,-1,-1,76,78,-1,80,-1,82,-1,84,-1,-1,-1,-1,-1,-1,-1,-1,-1,-1],"split_conditions":[7.568824E-1,3.1221755E0,-4.6127744E-2,8.925896E-1,-1.3956858E0,2.1511146E-1,-2.7142236E0,-2.286806E0,-4.6127744E-2,4.099371E-3,5.589041E-1,7.131365E-1,-1.0008876E0,-7.845826E-2,-1.115527E0,2.1511146E-1,1.5850621E0,1.2904513E0,1.773764E0,-2.6288738E-2,-8.5507035E-2,-8.42918E-2,-1.1489377E0,-8.272714E-2,2.1741368E-1,-8.189231E-3,5.5343013E-2,1.5080435E-4,-9.274579E-2,3.1337602E0,3.4570163E-1,3.734947E-2,2.7811985E0,2.6899374E0,-1.4082645E-2,-6.2681E-2,3.5835575E-2,3.1221755E0,1.2336571E0,3.7073379E0,-6.976547E-1,3.9498247E-2,-4.420941E-1,-1.0405303E0,3.1548694E-2,4.8203444E-1,-7.9038695E-2,5.56269E-2,-1.2488753E-2,8.1505996E-1,-3.921206E-2,-4.4734764E-1,9.241592E-3,4.078173E-1,-9.9293655E-3,3.3927646E-2,-5.727042E-2,1.5010078E-4,-6.504634E-2,5.088528E-4,1.4378304E0,1.3720052E0,-5.7403445E-2,-2.171393E-2,9.86994E-1,-3.221101E-2,-8.774375E-2,1.0413638E0,-5.317162E-2,-1.05346255E-1,5.7896286E-1,5.2625056E-2,-5.456556E-1,5.370335E-2,-1.2695844E0,5.6929052E-2,1.2644479E-2,5.540793E-2,-5.240239E-2,-4.5129135E-2,6.09334E-3,2.0219548E-2,-7.963208E-2,4.601778E-2,-3.5216335E-2],"split_indices":[7,6,1,18,7,3,16,16,1,0,19,4,12,0,11,3,9,0,12,0,0,0,0,0,17,0,0,0,0,8,17,4,9,14,0,0,0,6,3,14,18,0,10,14,0,10,0,0,0,7,0,13,0,7,0,0,0,0,0,0,16,17,0,0,9,0,0,9,2,0,0,0,19,0,11,0,0,0,0,0,0,0,0,0,0],"split_type":[0,0,0,0,0,0,0,0,0,0,0,0,0,0,0,0,0,0,0,0,0,0,0,0,0,0,0,0,0,0,0,0,0,0,0,0,0,0,0,0,0,0,0,0,0,0,0,0,0,0,0,0,0,0,0,0,0,0,0,0,0,0,0,0,0,0,0,0,0,0,0,0,0,0,0,0,0,0,0,0,0,0,0,0,0],"sum_hessian":[3.9611307E2,2.4317102E2,1.5294203E2,2.3294081E2,1.0230216E1,1.330336E2,1.9908426E1,1.7437846E2,5.856235E1,1.706485E0,8.52373E0,8.373872E1,4.9294876E1,4.950154E0,1.4958273E1,2.550978E0,1.7182748E2,2.901443E1,2.9547924E1,1.6383517E0,6.885379E0,7.965435E1,4.0843735E0,1.6467749E1,3.2827126E1,1.1853588E0,1.3772914E1,1.2917483E0,1.2592297E0,1.6731583E2,4.511649E0,1.2514115E1,1.6500313E1,2.8413202E1,1.1347221E0,2.455049E0,1.6293246E0,2.144541E1,1.1381718E1,1.647163E2,2.599534E0,1.9258406E0,2.5858088E0,1.1417825E1,1.0962911E0,1.4564531E1,1.9357816E0,2.7255676E1,1.1575252E0,1.9301687E1,2.1437225E0,9.566932E0,1.8147862E0,1.6348169E2,1.2346026E0,1.4142334E0,1.1853007E0,1.5547667E0,1.0310421E0,1.3024356E0,1.0115389E1,1.2203319E1,2.3612127E0,1.7252711E0,1.7576416E1,2.1968126E0,7.3701186E0,1.4068996E2,2.2791746E1,7.404987E0,2.710402E0,5.92383E0,6.279488E0,1.2493777E1,5.0826383E0,1.3823958E2,2.450373E0,1.9733196E1,3.0585506E0,1.2933497E0,1.4170521E0,4.8920474E0,1.3874408E0,2.7541656E0,2.3284726E0],"tree_param":{"num_deleted":"0","num_feature":"21","num_nodes":"85","size_leaf_vector":"1"}},{"base_weights":[9.116602E-3,-3.7570733E-1,4.9983793E-1,-4.739995E-1,2.4100852E-1,2.9339522E-2,6.855351E-1,-4.8722008E-1,2.3524792E-1,6.452834E-1,-4.83417E-2,-3.3943456E-1,5.089984E-1,7.959477E-1,-5.044956E-2,-5.063927E-1,7.2192345E-3,6.2625445E-2,-2.8940618E-2,4.0289473E-2,9.077891E-1,-4.2595676E-1,6.6625915E-2,1.6389197E-1,1.0348103E0,8.284259E-1,-3.7982617E-2,1.9619973E-2,-5.134915E-1,9.234807E-2,-4.3165E-2,5.106809E-1,-3.9084494E-2,1.1693479E-1,4.1148573E-1,-4.686255E-1,1.700321E-2,5.608637E-1,-4.4516817E-2,1.162347E-1,1.9646673E-2,8.5184133E-1,-3.3374827E-2,-5.207004E-1,-1.1347255E-3,6.2412735E-2,1.5207976E-2,6.060638E-1,-2.8824317E-3,-5.1473875E-2,-1.5731345E-1,1.0145607E-1,1.2276576E-1,1.9008537E-1,8.8397855E-1,-5.275679E-1,-1.18398175E-1,1.3114392E-2,7.6175466E-2,-3.621777E-2,2.1488428E-2,5.217423E-2,-3.6161397E-2,5.8267653E-2,-3.5237834E-2,9.130278E-1,1.822231E-1,-3.000192E-1,-5.3474987E-1,1.7789619E-2,-3.1882215E-2,9.2538816E-1,3.613492E-2,5.6642998E-2,-3.509117E-2,-4.4217035E-2,2.028595E-2,-5.4178752E-2,-2.9358495E-2,5.2628953E-2,9.4973505E-2],"categories":[],"categories_nodes":[],"categories_segments":[],"categories_sizes":[],"default_left":[0,0,0,0,0,0,0,0,0,0,0,0,0,0,0,0,0,0,0,0,0,0,0,0,0,0,0,0,0,0,0,0,0,0,0,0,0,0,0,0,0,0,0,0,0,0,0,0,0,0,0,0,0,0,0,0,0,0,0,0,0,0,0,0,0,0,0,0,0,0,0,0,0,0,0,0,0,0,0,0,0],"id":19,"left_children":[1,3,5,7,9,11,13,15,17,19,-1,21,23,25,-1,27,29,-1,-1,31,33,35,-1,37,39,41,-1,-1,43,-1,-1,45,-1,-1,47,49,-1,51,-1,-1,-1,53,-1,55,-1,-1,-1,57,-1,-1,59,-1,61,63,65,67,69,-1,-1,-1,-1,-1,-1,-1,-1,71,73,75,77,-1,-1,79,-1,-1,-1,-1,-1,-1,-1,-1,-1],"loss_changes":[5.3308773E1,9.70602E0,1.0819668E1,1.3975067E0,6.876593E0,6.568002E0,1.2084183E1,1.2799911E0,8.3319294E-1,2.3162336E0,0E0,2.1145725E0,2.7546077E0,3.4365044E0,0E0,7.472725E-1,2.8161132E0,0E0,0E0,1.3209733E0,8.5400486E-1,5.878539E-1,0E0,2.88928E0,4.342599E-1,2.457756E0,0E0,0E0,4.596367E-1,0E0,0E0,3.0296266E-2,0E0,0E0,4.537875E-1,1.905508E-1,0E0,1.2771237E0,0E0,0E0,0E0,1.5029678E0,0E0,2.877655E-1,0E0,0E0,0E0,1.6461086E-1,0E0,0E0,3.7370336E-1,0E0,1.1018676E0,1.2516209E0,1.3555984E0,4.2778015E-2,2.5963342E-1,0E0,0E0,0E0,0E0,0E0,0E0,0E0,0E0,1.5277481E-1,1.0625616E0,5.245226E-1,4.3361664E-2,0E0,0E0,1.7292023E-1,0E0,0E0,0E0,0E0,0E0,0E0,0E0,0E0,0E0],"parents":[2147483647,0,0,1,1,2,2,3,3,4,4,5,5,6,6,7,7,8,8,9,9,11,11,12,12,13,13,15,15,16,16,19,19,20,20,21,21,23,23,24,24,25,25,28,28,31,31,34,34,35,35,37,37,41,41,43,43,47,47,50,50,52,52,53,53,54,54,55,55,56,56,65,65,66,66,67,67,68,68,71,71],"right_children":[2,4,6,8,10,12,14,16,18,20,-1,22,24,26,-1,28,30,-1,-1,32,34,36,-1,38,40,42,-1,-1,44,-1,-1,46,-1,-1,48,50,-1,52,-1,-1,-1,54,-1,56,-1,-1,-1,58,-1,-1,60,-1,62,64,66,68,70,-1,-1,-1,-1,-1,-1,-1,-1,72,74,76,78,-1,-1,80,-1,-1,-1,-1,-1,-1,-1,-1,-1],"split_conditions":[-1.00402616E-1,1.0871688E0,5.8234984E-1,7.9417067E0,2.1262577E-1,8.5885346E-1,3.2161572E0,1.2437173E0,4.713793E-1,9.871414E-1,-4.83417E-2,1.4478626E0,-2.3129985E-2,1.9204328E0,-5.044956E-2,-6.146906E-1,-3.0488127E-1,6.2625445E-2,-2.8940618E-2,7.543075E-1,2.1511146E-1,2.1287606E0,6.6625915E-2,-5.636348E-1,-4.6127744E-2,-4.6127744E-2,-3.7982617E-2,1.9619973E-2,3.473498E0,9.234807E-2,-4.3165E-2,6.160254E-1,-3.9084494E-2,1.1693479E-1,1.2546517E0,8.9414185E-1,1.700321E-2,6.6077507E-1,-4.4516817E-2,1.162347E-1,1.9646673E-2,-5.245255E-1,-3.3374827E-2,-1.5477245E-1,-1.1347255E-3,6.2412735E-2,1.5207976E-2,1.1325324E0,-2.8824317E-3,-5.1473875E-2,1.0413638E0,1.0145607E-1,-8.2984906E-1,-8.0343413E-1,1.2336571E0,-1.3949528E0,-1.9118282E-1,1.3114392E-2,7.6175466E-2,-3.621777E-2,2.1488428E-2,5.217423E-2,-3.6161397E-2,5.8267653E-2,-3.5237834E-2,1.8622553E0,4.4329572E-1,-6.280169E-2,3.3203032E0,1.7789619E-2,-3.1882215E-2,-1.0405303E0,3.613492E-2,5.6642998E-2,-3.509117E-2,-4.4217035E-2,2.028595E-2,-5.4178752E-2,-2.9358495E-2,5.2628953E-2,9.4973505E-2],"split_indices":[9,0,7,2,1,17,9,17,1,17,0,13,14,7,0,19,1,0,0,18,3,9,0,1,1,1,0,0,8,0,0,18,0,0,16,3,0,9,0,0,0,20,0,9,0,0,0,16,0,0,9,0,8,3,3,13,11,0,0,0,0,0,0,0,0,7,9,11,19,0,0,14,0,0,0,0,0,0,0,0,0],"split_type":[0,0,0,0,0,0,0,0,0,0,0,0,0,0,0,0,0,0,0,0,0,0,0,0,0,0,0,0,0,0,0,0,0,0,0,0,0,0,0,0,0,0,0,0,0,0,0,0,0,0,0,0,0,0,0,0,0,0,0,0,0,0,0,0,0,0,0,0,0,0,0,0,0,0,0,0,0,0,0,0,0],"sum_hessian":[2.802996E2,1.572323E2,1.23067276E2,1.3581717E2,2.1415127E1,3.5154583E1,8.79127E1,1.3363914E2,2.17803E0,1.3814833E1,7.600295E0,2.0039806E1,1.5114777E1,8.075161E1,7.1610856E0,1.2862726E2,5.0118847E0,1.1370065E0,1.0410235E0,4.5294166E0,9.285416E0,1.8983099E1,1.056706E0,9.917386E0,5.19739E0,7.886846E1,1.8831499E0,1.0201619E0,1.276071E2,1.2655239E0,3.7463608E0,2.0778558E0,2.4515605E0,5.192684E0,4.092732E0,1.791426E1,1.0688384E0,6.0519767E0,3.8654094E0,4.1756682E0,1.0217218E0,7.7572556E1,1.2959018E0,1.2576465E2,1.8424511E0,1.0159895E0,1.0618663E0,2.577332E0,1.5154E0,1.5033908E1,2.8803537E0,2.3266509E0,3.7253256E0,3.9129717E0,7.3659584E1,1.2334766E2,2.4169893E0,1.0911674E0,1.4861647E0,1.8751559E0,1.0051979E0,2.0004494E0,1.7248762E0,2.2270696E0,1.6859021E0,7.0442535E1,3.2170463E0,5.08275E0,1.1826491E2,1.0205992E0,1.3963901E0,6.8236305E1,2.2062366E0,1.8333671E0,1.3836792E0,4.0567346E0,1.0260153E0,1.1370036E2,4.564547E0,5.22376E0,6.3012543E1],"tree_param":{"num_deleted":"0","num_feature":"21","num_nodes":"81","size_leaf_vector":"1"}},{"base_weights":[-2.1435782E-2,1.0757145E0,-2.4266304E-1,1.09750666E-1,3.6862817E-2,-3.6670977E-1,1.0326922E0,-4.548796E-1,8.8088495E-1,1.09872304E-1,1.4622613E-2,-5.0922555E-1,5.522806E-1,1.1056123E-1,-3.3249598E-2,5.3677876E-2,-5.2453972E-2,8.5990024E-1,-3.4799777E-2,1.2158313E-1,-5.1698607E-4],"categories":[],"categories_nodes":[],"categories_segments":[],"categories_sizes":[],"default_left":[0,0,0,0,0,0,0,0,0,0,0,0,0,0,0,0,0,0,0,0,0],"id":20,"left_children":[1,3,5,-1,-1,7,9,11,13,-1,-1,15,17,-1,-1,-1,-1,19,-1,-1,-1],"loss_changes":[4.4511036E1,6.965256E-2,2.4509998E1,0E0,0E0,1.5773247E1,6.461134E-1,7.461666E0,2.9758034E0,0E0,0E0,2.2837143E0,2.29213E0,0E0,0E0,0E0,0E0,1.7464056E0,0E0,0E0,0E0],"parents":[2147483647,0,0,1,1,2,2,5,5,6,6,7,7,8,8,11,11,12,12,17,17],"right_children":[2,4,6,-1,-1,8,10,12,14,-1,-1,16,18,-1,-1,-1,-1,20,-1,-1,-1],"split_conditions":[-1.6427616E0,-1.1816422E0,3.1617873E0,1.09750666E-1,3.6862817E-2,1.8622553E0,-1.2440374E-1,3.1221755E0,-4.6391895E-1,1.09872304E-1,1.4622613E-2,-2.286806E0,9.582009E-1,1.1056123E-1,-3.3249598E-2,5.3677876E-2,-5.2453972E-2,1.05103E0,-3.4799777E-2,1.2158313E-1,-5.1698607E-4],"split_indices":[17,18,9,0,0,7,3,6,3,0,0,16,15,0,0,0,0,4,0,0,0],"split_type":[0,0,0,0,0,0,0,0,0,0,0,0,0,0,0,0,0,0,0,0,0],"sum_hessian":[1.8130919E2,2.977603E1,1.5153316E2,2.8350134E1,1.425896E0,1.3875017E2,1.2782992E1,1.3018513E2,8.565032E0,1.1673983E1,1.1090101E0,1.2398912E2,6.19601E0,7.301547E0,1.2634848E0,1.2977433E0,1.22691376E2,4.651479E0,1.5445315E0,3.0082643E0,1.6432145E0],"tree_param":{"num_deleted":"0","num_feature":"21","num_nodes":"21","size_leaf_vector":"1"}},{"base_weights":[-1.6288389E-2,3.117579E-1,-4.9061662E-1,9.9646114E-2,5.285059E-1,-5.8171815E-1,1.5693185E-1,4.0340632E-1,-2.3221509E-1,5.448099E-1,-2.2544254E-2,-7.7568406E-1,-3.6317462E-1,-7.184748E-2,4.8607296E-1,4.662158E-1,-6.1749846E-1,-8.952128E-2,-8.433097E-1,5.532622E-1,-1.588626E-2,-7.885926E-2,7.4078394E-5,-7.968216E-2,-1.6806492E-1,5.4143507E-2,-1.0729824E-2,5.234924E-1,-2.0262538E-2,-8.231457E-2,-4.5734444E-3,4.116715E-1,-4.8467997E-1,-7.918383E-3,-9.3995884E-2,5.6164186E-2,1.10569574E-1,1.2254917E-1,-7.648122E-1,5.400175E-1,3.698247E-3,4.465244E-2,-4.6817392E-1,-2.1907073E-1,4.9736565E-1,-6.170007E-1,7.9068945E-5,3.294756E-2,-1.7017495E-2,-4.4634676E-1,2.8891435E-1,-6.0807904E-3,-8.1785583E-1,5.57698E-2,1.9934483E-1,4.147556E-3,-8.852511E-2,2.9698534E-2,-6.2571086E-2,-1.3013427E-2,5.416124E-2,-7.508835E-1,6.751665E-2,4.8377864E-2,-5.004217E-1,-6.8417954E-1,1.4838134E-1,4.8282015E-1,-4.4856854E-3,-8.5722804E-2,-2.5344921E-2,3.8758665E-2,-1.2403435E-2,-1.5432732E-1,-8.673999E-1,4.0096335E-2,-3.9278783E-2,-6.7150764E-2,-5.2206386E-3,-7.6295584E-2,-2.3574336E-2,2.976721E-2,-7.6116757E-3,5.3947724E-2,-1.6664876E-2,3.8190857E-1,-4.7267377E-1,3.7839577E-2,-6.372144E-2,-3.795898E-2,-9.242871E-2,5.1060297E-2,-1.6974134E-2,-7.3872216E-2,3.3465553E-2],"categories":[],"categories_nodes":[],"categories_segments":[],"categories_sizes":[],"default_left":[0,0,0,0,0,0,0,0,0,0,0,0,0,0,0,0,0,0,0,0,0,0,0,0,0,0,0,0,0,0,0,0,0,0,0,0,0,0,0,0,0,0,0,0,0,0,0,0,0,0,0,0,0,0,0,0,0,0,0,0,0,0,0,0,0,0,0,0,0,0,0,0,0,0,0,0,0,0,0,0,0,0,0,0,0,0,0,0,0,0,0,0,0,0,0],"id":21,"left_children":[1,3,5,7,9,11,13,15,17,19,-1,21,23,-1,25,27,29,31,33,35,-1,-1,-1,-1,37,-1,-1,39,41,-1,-1,43,45,-1,-1,-1,47,49,51,53,-1,-1,55,57,59,61,63,-1,-1,65,67,-1,69,-1,71,-1,-1,-1,-1,-1,-1,73,75,-1,77,79,81,83,85,-1,-1,-1,-1,87,89,-1,-1,-1,-1,-1,-1,-1,-1,-1,-1,91,93,-1,-1,-1,-1,-1,-1,-1,-1],"loss_changes":[5.9071285E1,1.026646E1,9.246769E0,1.1653273E1,1.4845715E0,5.4946976E0,6.0913553E0,4.150364E0,4.758455E0,7.3457336E-1,0E0,7.153168E-1,5.4464474E0,0E0,5.534682E-1,1.6076107E0,4.234302E-1,9.321793E0,6.918087E-1,3.3727646E-1,0E0,0E0,0E0,0E0,8.202259E0,0E0,0E0,3.9257812E-1,1.6726023E0,0E0,0E0,1.2357304E0,1.6814952E0,0E0,0E0,0E0,2.5550574E-1,3.1864429E0,5.272455E-1,1.8731117E-1,0E0,0E0,8.998043E-1,8.547641E-1,5.8854103E-1,1.9379311E0,1.8449605E0,0E0,0E0,1.1910038E0,1.4587417E0,0E0,1.0024071E-1,0E0,2.9164457E-1,0E0,0E0,0E0,0E0,0E0,0E0,1.0690899E0,8.153856E-1,0E0,2.52159E-1,2.0804405E-2,1.2394501E-1,6.57464E-1,2.2027454E0,0E0,0E0,0E0,0E0,1.2815014E0,4.492855E-2,0E0,0E0,0E0,0E0,0E0,0E0,0E0,0E0,0E0,0E0,5.607167E-1,1.4287988E0,0E0,0E0,0E0,0E0,0E0,0E0,0E0,0E0],"parents":[2147483647,0,0,1,1,2,2,3,3,4,4,5,5,6,6,7,7,8,8,9,9,11,11,12,12,14,14,15,15,16,16,17,17,18,18,19,19,24,24,27,27,28,28,31,31,32,32,36,36,37,37,38,38,39,39,42,42,43,43,44,44,45,45,46,46,49,49,50,50,52,52,54,54,61,61,62,62,64,64,65,65,66,66,67,67,68,68,73,73,74,74,85,85,86,86],"right_children":[2,4,6,8,10,12,14,16,18,20,-1,22,24,-1,26,28,30,32,34,36,-1,-1,-1,-1,38,-1,-1,40,42,-1,-1,44,46,-1,-1,-1,48,50,52,54,-1,-1,56,58,60,62,64,-1,-1,66,68,-1,70,-1,72,-1,-1,-1,-1,-1,-1,74,76,-1,78,80,82,84,86,-1,-1,-1,-1,88,90,-1,-1,-1,-1,-1,-1,-1,-1,-1,-1,92,94,-1,-1,-1,-1,-1,-1,-1,-1],"split_conditions":[7.568824E-1,-4.6127744E-2,-4.6127744E-2,-1.12898774E-1,1.7399268E0,-4.6391895E-1,-2.7142236E0,1.2492539E0,1.4267105E0,3.0290709E0,-2.2544254E-2,8.688406E-1,-1.6427616E0,-7.184748E-2,1.1308569E0,1.5306923E0,-1.1266735E0,8.5885346E-1,-1.3956858E0,8.541859E0,-1.588626E-2,-7.885926E-2,7.4078394E-5,-7.968216E-2,6.160254E-1,5.4143507E-2,-1.0729824E-2,6.987049E-1,-3.8877898E-1,-8.231457E-2,-4.5734444E-3,-1.1429493E0,-5.636348E-1,-7.918383E-3,-9.3995884E-2,5.6164186E-2,-1.1362365E0,-1.2440374E-1,-3.1788194E-1,1.0413638E0,3.698247E-3,4.465244E-2,5.746604E-4,1.5557852E-1,-1.3861858E0,1.9002985E0,-2.3129985E-2,3.294756E-2,-1.7017495E-2,-6.1457205E-1,6.6077507E-1,-6.0807904E-3,2.103581E0,5.57698E-2,5.546267E-1,4.147556E-3,-8.852511E-2,2.9698534E-2,-6.2571086E-2,-1.3013427E-2,5.416124E-2,-4.598658E-1,9.105699E-2,4.8377864E-2,8.904478E-1,1.1985314E0,2.6877403E-1,9.0407896E-1,-5.487243E-1,-8.5722804E-2,-2.5344921E-2,3.8758665E-2,-1.2403435E-2,2.7811985E0,-4.2662162E-1,4.0096335E-2,-3.9278783E-2,-6.7150764E-2,-5.2206386E-3,-7.6295584E-2,-2.3574336E-2,2.976721E-2,-7.6116757E-3,5.3947724E-2,-1.6664876E-2,-1.0898508E0,1.3386576E0,3.7839577E-2,-6.372144E-2,-3.795898E-2,-9.242871E-2,5.1060297E-2,-1.6974134E-2,-7.3872216E-2,3.3465553E-2],"split_indices":[7,1,1,13,12,3,16,19,6,14,0,8,17,0,12,9,16,17,7,2,0,0,0,0,18,0,0,7,10,0,0,3,1,0,0,0,12,3,9,9,0,0,7,16,17,0,14,0,0,13,9,0,0,0,3,0,0,0,0,0,0,10,10,0,13,12,10,19,10,0,0,0,0,9,9,0,0,0,0,0,0,0,0,0,0,11,7,0,0,0,0,0,0,0,0],"split_type":[0,0,0,0,0,0,0,0,0,0,0,0,0,0,0,0,0,0,0,0,0,0,0,0,0,0,0,0,0,0,0,0,0,0,0,0,0,0,0,0,0,0,0,0,0,0,0,0,0,0,0,0,0,0,0,0,0,0,0,0,0,0,0,0,0,0,0,0,0,0,0,0,0,0,0,0,0,0,0,0,0,0,0,0,0,0,0,0,0,0,0,0,0,0,0],"sum_hessian":[3.776486E2,2.2345172E2,1.5419688E2,1.1367145E2,1.0978027E2,1.352681E2,1.8928774E1,5.923589E1,5.4435562E1,1.07728065E2,2.0522032E0,7.0313126E1,6.495498E1,4.8490434E0,1.407973E1,5.631456E1,2.921329E0,4.506025E1,9.375312E0,1.06660645E2,1.0674269E0,6.914783E1,1.1653016E0,1.9199215E1,4.575576E1,1.2958241E1,1.1214886E0,5.0314575E1,5.9999857E0,1.8251976E0,1.0961313E0,1.9846497E1,2.5213753E1,1.2569468E0,8.118365E0,1.04415474E2,2.2451692E0,3.1304972E1,1.44507885E1,4.8555336E1,1.7592367E0,2.939602E0,3.0603838E0,2.187706E0,1.765879E1,1.9592852E1,5.6209006E0,1.1639893E0,1.0811799E0,6.7024837E0,2.4602488E1,1.1629047E0,1.3287884E1,4.5554077E1,3.001258E0,1.7826377E0,1.2777462E0,1.0829824E0,1.1047235E0,1.0352961E0,1.6623493E1,1.6306547E1,3.2863052E0,2.875418E0,2.7454827E0,4.680383E0,2.0221007E0,1.4424106E1,1.0178382E1,1.1936404E1,1.3514798E0,1.7715005E0,1.2297574E0,3.044323E0,1.3262224E1,1.9805225E0,1.3057826E0,1.6264703E0,1.1190124E0,3.3844678E0,1.2959154E0,1.0187135E0,1.0033872E0,1.3422534E1,1.0015718E0,5.677249E0,4.501133E0,1.5503542E0,1.4939687E0,2.1864023E0,1.1075822E1,4.663669E0,1.0135797E0,3.449395E0,1.0517379E0],"tree_param":{"num_deleted":"0","num_feature":"21","num_nodes":"95","size_leaf_vector":"1"}},{"base_weights":[3.024058E-2,-3.8760382E-1,4.8812002E-1,-4.4302437E-1,4.373308E-1,-1.9493252E-1,6.0486144E-1,-4.3789275E-2,-4.783376E-1,8.8843566E-1,-6.3827154E-3,-3.908405E-1,4.5569715E-1,6.817175E-1,-4.979212E-2,-3.676005E-1,4.719406E-1,-4.922697E-1,4.5265514E-2,3.3672508E-2,1.0471889E-1,-2.5401625E-1,4.8323285E-2,-5.0868984E-2,5.685247E-2,7.979042E-2,-6.4708004E-3,3.6635166E-1,7.9736084E-1,1.8736042E-2,-4.7747288E-2,7.583264E-1,-3.0853188E-2,-5.146176E-1,1.7161533E-2,-4.131971E-2,1.3532199E-2,-4.5391947E-2,5.3655237E-1,8.237451E-1,-3.410097E-2,9.901929E-2,1.1686168E-2,-2.0979677E-1,-5.2182585E-1,-2.5450373E-1,6.968928E-2,-6.87815E-2,6.6976887E-1,4.9667957E-1,9.070766E-1,-3.755145E-2,1.5276802E-2,-2.349935E-1,-5.3006494E-1,-4.233763E-2,2.0198708E-2,-4.272794E-2,3.406026E-2,7.759565E-1,-2.526763E-2,2.1612282E-1,8.549138E-1,9.1793734E-1,1.591937E-2,2.0390263E-2,-4.0326644E-2,-5.3770233E-2,-3.0069658E-1,8.584047E-2,1.5594603E-1,-8.072384E-3,5.617505E-3,9.4455145E-2,2.9533615E-2,1.6507568E-2,1.096285E0,9.376954E-2,4.1945753E-1,-4.5163367E-2,2.0884147E-2,-3.2749575E-2,5.773124E-2,-4.4400673E-2,3.8665462E-2,1.2361944E-1,3.835128E-2,4.9197354E-4,6.776393E-2],"categories":[],"categories_nodes":[],"categories_segments":[],"categories_sizes":[],"default_left":[0,0,0,0,0,0,0,0,0,0,0,0,0,0,0,0,0,0,0,0,0,0,0,0,0,0,0,0,0,0,0,0,0,0,0,0,0,0,0,0,0,0,0,0,0,0,0,0,0,0,0,0,0,0,0,0,0,0,0,0,0,0,0,0,0,0,0,0,0,0,0,0,0,0,0,0,0,0,0,0,0,0,0,0,0,0,0,0,0],"id":22,"left_children":[1,3,5,7,9,11,13,15,17,19,21,23,25,27,-1,29,31,33,-1,-1,-1,35,-1,-1,-1,-1,-1,37,39,-1,-1,41,-1,43,45,-1,-1,-1,47,49,-1,-1,-1,51,53,55,-1,57,59,61,63,-1,-1,65,67,-1,-1,-1,-1,69,71,73,75,77,-1,-1,-1,-1,79,-1,81,-1,-1,-1,83,-1,85,-1,87,-1,-1,-1,-1,-1,-1,-1,-1,-1,-1],"loss_changes":[5.231545E1,6.731991E0,1.0519348E1,1.8753452E0,1.9084361E0,2.7013755E0,9.801975E0,2.1826901E0,1.8243752E0,6.087351E-2,8.2417774E-1,2.0702543E0,9.497092E-1,3.5296974E0,0E0,5.743878E-1,1.3690518E0,1.3992786E0,0E0,0E0,0E0,3.3464652E-1,0E0,0E0,0E0,0E0,0E0,4.4272485E0,2.5583496E0,0E0,0E0,4.7985935E-1,0E0,1.4766884E-1,1.303845E0,0E0,0E0,0E0,2.0843124E0,1.5772743E0,0E0,0E0,0E0,3.2028776E-1,1.4403343E-1,4.7796884E-1,0E0,9.4773966E-1,1.5554543E0,1.5557327E0,3.2566452E-1,0E0,0E0,4.4927895E-1,3.0462265E-2,0E0,0E0,0E0,0E0,7.905302E-1,2.1365013E-2,1.4739873E0,1.0291238E0,1.6849136E-1,0E0,0E0,0E0,0E0,5.406431E-1,0E0,8.703531E-1,0E0,0E0,0E0,1.8338684E0,0E0,4.5113564E-2,0E0,4.2307633E-1,0E0,0E0,0E0,0E0,0E0,0E0,0E0,0E0,0E0,0E0],"parents":[2147483647,0,0,1,1,2,2,3,3,4,4,5,5,6,6,7,7,8,8,9,9,10,10,11,11,12,12,13,13,15,15,16,16,17,17,21,21,27,27,28,28,31,31,33,33,34,34,38,38,39,39,43,43,44,44,45,45,47,47,48,48,49,49,50,50,53,53,54,54,59,59,60,60,61,61,62,62,63,63,68,68,70,70,74,74,76,76,78,78],"right_children":[2,4,6,8,10,12,14,16,18,20,22,24,26,28,-1,30,32,34,-1,-1,-1,36,-1,-1,-1,-1,-1,38,40,-1,-1,42,-1,44,46,-1,-1,-1,48,50,-1,-1,-1,52,54,56,-1,58,60,62,64,-1,-1,66,68,-1,-1,-1,-1,70,72,74,76,78,-1,-1,-1,-1,80,-1,82,-1,-1,-1,84,-1,86,-1,88,-1,-1,-1,-1,-1,-1,-1,-1,-1,-1],"split_conditions":[-1.5477245E-1,1.4015547E0,5.746604E-4,-7.1660304E-1,3.3303303E-1,1.3078613E0,3.2161572E0,-6.5335494E-1,1.6970161E0,-5.760286E-2,9.582009E-1,2.1287606E0,5.520354E-1,2.1663815E-1,-4.979212E-2,-6.146906E-1,1.7459003E0,2.2616994E0,4.5265514E-2,3.3672508E-2,1.0471889E-1,3.7540424E-1,4.8323285E-2,-5.0868984E-2,5.685247E-2,7.979042E-2,-6.4708004E-3,7.568824E-1,1.9204328E0,1.8736042E-2,-4.7747288E-2,-2.9388773E-1,-3.0853188E-2,-6.033571E-1,1.708858E0,-4.131971E-2,1.3532199E-2,-4.5391947E-2,6.064052E-1,6.987049E-1,-3.410097E-2,9.901929E-2,1.1686168E-2,8.8388646E-1,-1.3949528E0,8.552402E-1,6.968928E-2,-2.7600326E-2,1.8040777E0,9.942703E-1,-4.6127744E-2,-3.755145E-2,1.5276802E-2,-4.243224E-1,3.3548207E0,-4.233763E-2,2.0198708E-2,-4.272794E-2,3.406026E-2,5.546267E-1,-8.865994E-2,1.169297E-1,5.3813356E-1,1.2336571E0,1.591937E-2,2.0390263E-2,-4.0326644E-2,-5.3770233E-2,1.11298E0,8.584047E-2,-1.2695844E0,-8.072384E-3,5.617505E-3,9.4455145E-2,1.4353919E0,1.6507568E-2,1.5483366E0,9.376954E-2,-3.0054405E-1,-4.5163367E-2,2.0884147E-2,-3.2749575E-2,5.773124E-2,-4.4400673E-2,3.8665462E-2,1.2361944E-1,3.835128E-2,4.9197354E-4,6.776393E-2],"split_indices":[9,12,7,8,13,17,9,11,0,7,15,9,9,16,0,19,7,2,0,0,0,10,0,0,0,0,0,7,7,0,0,11,0,8,11,0,0,0,9,7,0,0,0,0,13,10,0,16,7,14,1,0,0,10,19,0,0,0,0,3,16,7,17,3,0,0,0,0,20,0,11,0,0,0,12,0,10,0,4,0,0,0,0,0,0,0,0,0,0],"split_type":[0,0,0,0,0,0,0,0,0,0,0,0,0,0,0,0,0,0,0,0,0,0,0,0,0,0,0,0,0,0,0,0,0,0,0,0,0,0,0,0,0,0,0,0,0,0,0,0,0,0,0,0,0,0,0,0,0,0,0,0,0,0,0,0,0,0,0,0,0,0,0,0,0,0,0,0,0,0,0,0,0,0,0,0,0,0,0,0,0],"sum_hessian":[2.7145248E2,1.4201143E2,1.2944107E2,1.3350526E2,8.506158E0,1.8796017E1,1.1064505E2,1.1031227E1,1.2247404E2,3.7209508E0,4.785207E0,1.47530775E1,4.0429397E0,1.0379322E2,6.851826E0,6.952921E0,4.078306E0,1.2113255E2,1.3414836E0,1.5288478E0,2.192103E0,3.497476E0,1.2877309E0,1.3557434E1,1.1956435E0,2.1173682E0,1.9255713E0,2.8966871E1,7.482635E1,1.0325083E0,5.9204125E0,3.0042903E0,1.0740161E0,1.1603222E2,5.1003304E0,2.439008E0,1.0584681E0,4.6911616E0,2.4275711E1,7.340149E1,1.4248612E0,1.8073533E0,1.196937E0,3.3759346E0,1.1265629E2,4.0909142E0,1.0094161E0,4.465992E0,1.980972E1,1.6317532E1,5.7083958E1,2.2924197E0,1.0835149E0,3.9699428E0,1.0868635E2,3.0391598E0,1.0517545E0,2.3576682E0,2.108324E0,1.7083305E1,2.726412E0,1.005001E1,6.267522E0,5.6042725E1,1.0412338E0,1.041562E0,2.928381E0,1.0388302E2,4.8033257E0,1.47388525E1,2.3444536E0,1.627224E0,1.0991882E0,1.2210265E0,8.828983E0,2.0610256E0,4.2064962E0,5.3058556E1,2.984169E0,3.7933023E0,1.0100237E0,1.1955514E0,1.1489023E0,3.6911907E0,5.137792E0,2.9024332E0,1.3040632E0,1.53639E0,1.4477789E0],"tree_param":{"num_deleted":"0","num_feature":"21","num_nodes":"89","size_leaf_vector":"1"}},{"base_weights":[-9.2115365E-3,9.570403E-1,-2.4878258E-1,1.0052898E0,-2.9385319E-2,-4.1715324E-1,5.175295E-1,1.02476336E-1,3.2470405E-2,9.0168685E-2,-4.5460337E-1,2.2767548E-1,9.742035E-2,-4.9607688E-1,6.67081E-2,-2.1392627E-1,8.534206E-2,-5.209914E-2,2.2890617E-1,-3.776265E-1,5.3545143E-2,6.9941126E-2,-3.4949146E-2,-4.7062114E-2,1.3722061E-2],"categories":[],"categories_nodes":[],"categories_segments":[],"categories_sizes":[],"default_left":[0,0,0,0,0,0,0,0,0,0,0,0,0,0,0,0,0,0,0,0,0,0,0,0,0],"id":23,"left_children":[1,3,5,7,-1,9,11,-1,-1,-1,13,15,-1,17,-1,19,-1,-1,21,23,-1,-1,-1,-1,-1],"loss_changes":[4.0490025E1,2.3929539E0,1.8296276E1,1.1375046E-1,0E0,6.1116924E0,3.1786366E0,0E0,0E0,0E0,5.5839596E0,4.8856535E0,0E0,2.0965157E0,0E0,1.5243292E0,0E0,0E0,1.4232523E0,5.161551E-1,0E0,0E0,0E0,0E0,0E0],"parents":[2147483647,0,0,1,1,2,2,3,3,5,5,6,6,10,10,11,11,13,13,15,15,18,18,19,19],"right_children":[2,4,6,8,-1,10,12,-1,-1,-1,14,16,-1,18,-1,20,-1,-1,22,24,-1,-1,-1,-1,-1],"split_conditions":[-1.7069056E0,2.7299166E0,1.3968351E0,2.6899374E0,-2.9385319E-2,-2.286806E0,1.9204328E0,1.02476336E-1,3.2470405E-2,9.0168685E-2,3.2161572E0,3.3248968E0,9.742035E-2,3.1221755E0,6.67081E-2,1.5030663E0,8.534206E-2,-5.209914E-2,-7.6198477E-1,1.8622553E0,5.3545143E-2,6.9941126E-2,-3.4949146E-2,-4.7062114E-2,1.3722061E-2],"split_indices":[17,13,7,14,0,16,7,0,0,0,9,9,0,6,0,12,0,0,10,7,0,0,0,0,0],"split_type":[0,0,0,0,0,0,0,0,0,0,0,0,0,0,0,0,0,0,0,0,0,0,0,0,0],"sum_hessian":[1.7288496E2,3.3753513E1,1.3913145E2,3.268898E1,1.0645356E0,1.1444233E2,2.4689125E1,3.1288027E1,1.4009537E0,2.5227952E0,1.1191953E2,1.6019802E1,8.669323E0,1.0846679E2,3.4527466E0,9.7776375E0,6.2421637E0,1.05135124E2,3.3316615E0,8.431805E0,1.3458331E0,1.7218103E0,1.6098512E0,7.214569E0,1.2172357E0],"tree_param":{"num_deleted":"0","num_feature":"21","num_nodes":"25","size_leaf_vector":"1"}},{"base_weights":[-1.40211005E-2,3.1226897E-1,-4.6660042E-1,5.0949365E-2,5.0597405E-1,-6.789053E-1,-1.7551433E-1,1.7359386E-1,-7.6203316E-1,5.2023417E-1,-1.6696377E-1,-6.9867766E-1,1.224625E-2,-7.4518435E-2,9.9271044E-2,4.4046578E-1,-4.019318E-1,-8.59785E-2,-2.507522E-1,-1.3425471E-2,5.271559E-1,-5.993214E-2,3.167906E-2,-7.4777645E-1,-3.7351868E-1,-6.517545E-2,2.5722387E-1,4.846637E-1,-1.1952396E-1,-2.0031564E-1,-8.247625E-2,3.8149059E-3,-4.422913E-2,-6.623164E-3,5.3422964E-1,-7.6348805E-1,2.5687318E-3,3.345206E-1,-6.943523E-1,4.8679128E-1,-2.117963E-1,5.181308E-1,4.98746E-2,3.844346E-2,-5.5022962E-2,-5.064866E-1,1.0680518E-2,5.4161894E-1,7.178347E-4,-7.9539396E-2,-3.8804752E-1,4.923425E-2,-1.2533973E-2,-2.0845285E-2,-7.509376E-2,2.9272733E-3,5.172157E-1,-5.706053E-1,